
\data\
ngram 1=1091
ngram 2=4163
ngram 3=5728

\1-grams:
-3.7029	10	-0.7722345
-3.966142	12	-0.7779478
-3.966142	18	-0.7779478
-3.966142	20	-0.7760884
-3.7029	22	-1.041189
-3.966142	5	-0.7743157
-3.966142	6	-0.7779478
-0.8448555	</s>
-99	<s>	-1.192197
-4.045323	กรอบ	-0.6986021
-2.996105	กระจาย	-0.7622448
-3.966142	กระถาง	-0.7778851
-3.744293	กระเทียม	-0.6716922
-3.63035	กระแส	-1.11381
-3.966142	กรุงศรี	-0.7762456
-3.7029	กรุงเทพ	-0.7746472
-3.966142	กรุงไทย	-0.7755534
-3.540173	กลับ	-0.7772818
-3.899195	กลาง	-0.8446204
-4.045323	กลางวัน	-0.6965768
-3.63035	กล้วย	-0.8440482
-2.846666	กว่า	-1.428025
-3.7029	กสิกร	-0.7760019
-2.863479	กะเพรา	-1.201128
-3.899195	กัญชา	-0.7781108
-2.607572	กัน	-1.242319
-2.559602	กับ	-0.9521167
-3.966142	กับข้าว	-0.7777755
-3.568202	การ	-0.9027455
-3.054097	การบ้าน	-1.096198
-3.32932	การเชื่อมต่อ	-1.405296
-3.312929	กาแฟ	-0.776639
-3.899195	กำกับ	-0.8430351
-4.142233	กิจกรรม	-0.5999736
-2.251533	กิน	-0.9526329
-3.63035	กินข้าว	-0.6933148
-3.966142	กิโลแคลอรี่	-0.7111641
-3.966142	กีฬา	-0.7749626
-1.963976	กี่	-1.396278
-3.32932	กี่คน	-1.347986
-3.239143	กี่โมง	-1.148667
-4.142233	กุมภา	-0.5874339
-2.595074	กุ้ง	-0.9372333
-3.966142	กุ้งสับ	-0.7757895
-4.443263	กู๊ด	-0.3010143
-3.899195	กู๊ดไนท์	-0.7781108
-3.32932	ก็	-1.411785
-3.382565	ก็ได้	-0.8483925
-2.944952	ก่อน	-0.9148985
-3.899195	ก่อนนอน	-0.7781108
-3.899195	ก่อนหน้า	-0.7781108
-3.841203	ก่อย	-0.8361028
-3.110825	ก๋วยเตี๋ยว	-0.8326838
-3.665112	ขนม	-0.8125141
-3.899195	ขนาด	-0.844965
-3.966142	ขยะ	-0.7734069
-3.513844	ขวด	-0.7304339
-3.899195	ขวัญ	-0.8430351
-1.970507	ขอ	-1.018147
-2.185584	ของ	-0.9506726
-3.966142	ของขวัญ	-0.7749626
-3.966142	ของหวาน	-0.775758
-3.63035	ขอบคุณ	-0.7778002
-3.966142	ขอโทษ	-0.7758996
-3.346353	ขั้น	-0.7599554
-2.841203	ขาย	-0.7999056
-3.966142	ขาว	-0.7111641
-3.899195	ขี้เกียจ	-0.8449493
-3.966142	ขโมย	-0.7770779
-3.63035	ข่ายงาน	-1.113795
-3.966142	ข่าว	-0.7778225
-3.899195	ข้อ	-0.7781108
-3.63035	ข้อมูล	-0.8366114
-3.899195	ข้อสอบ	-0.8432081
-3.465539	ข้าง	-0.8433338
-3.312929	ข้าม	-0.9111646
-2.643922	ข้าว	-1.13427
-3.32932	ข้าวกะเพรา	-0.968021
-3.32932	ข้าวผัด	-0.9682961
-3.899195	ข้าวมัน	-0.8443148
-3.7029	ข้าวมันไก่	-0.7748759
-3.966142	ข้าวเปล่า	-0.7747892
-3.966142	ข้าวเปล่่า	-0.7766227
-3.899195	ข้าวโพด	-0.8450432
-3.7029	ข้าวไข่ดาว	-0.7779791
-2.918218	คณะ	-1.242161
-2.301813	คน	-1.184477
-3.841203	คนนี้	-0.9026515
-3.966142	ครับ	-0.7111641
-3.297135	ครั้ง	-0.7364908
-3.7029	คราว	-0.7001702
-2.996105	คริส	-0.98771
-3.899195	ครีมเมอรี่	-0.8304719
-2.57994	ครึ่ง	-1.202777
-3.899195	คลุก	-0.8450432
-3.899195	คล้าย	-0.8438991
-3.267172	ควร	-1.186859
-2.980865	ความ	-1.091822
-2.958963	ความคิดเห็น	-1.299473
-3.036723	ความรู้สึก	-1.231524
-3.32932	ความสัมพันธ์	-1.406758
-3.7029	ความแรง	-1.040586
-3.966142	คอ	-0.777564
-3.465539	คอมพิวเตอร์	-0.9871587
-3.744293	คะน้า	-0.7364087
-2.996105	คะแนน	-1.07604
-3.966142	คัตสึด้ง	-0.7771642
-3.966142	คัทสึด้ง	-0.7111641
-3.966142	คาโบนาร่า	-0.7773602
-3.422074	คำนวณ	-1.321687
-3.7029	คิด	-0.7770308
-3.966142	คิดส์ซาเนีย	-0.7762456
-3.899195	คิล	-0.8450041
-3.899195	คิว	-0.844354
-3.7029	คิสึเนะอุด้ง	-0.7763006
-3.422074	คืน	-0.604897
-2.58593	คือ	-1.090042
-3.899195	คุมสอบ	-0.8442913
-3.281895	คุย	-1.010563
-3.568202	คู่	-0.901899
-3.63035	ค่อย	-1.112627
-3.966142	ค่ะ	-0.7111641
-3.364082	ค่า	-0.937108
-3.32932	ค่าย	-1.407021
-4.045323	ค่ำ	-0.6965768
-3.899195	งด	-0.8354208
-3.176091	งบ	-0.9913217
-3.32932	งบประมาณ	-1.413272
-2.49144	งาน	-0.8660717
-4.142233	งีบ	-0.6019974
-3.665112	ง่วง	-0.7455425
-3.966142	จง	-0.7760884
-3.081535	จดหมาย	-0.8544431
-3.32932	จน	-1.414355
-3.364082	จบ	-0.9315226
-3.899195	จอ	-0.8356928
-3.252931	จอง	-1.02839
-3.40187	จอด	-1.342
-2.814874	จะ	-0.965327
-3.121044	จัง	-1.097597
-3.422074	จัด	-0.8713138
-3.110825	จันทร์	-0.6891268
-3.212814	จับ	-1.530453
-2.40187	จาก	-1.088754
-4.045323	จากนี้	-0.6843439
-2.643922	จาน	-1.558291
-3.110825	จาม	-1.341906
-3.7029	จีน	-0.765302
-3.540173	จุด	-0.7700636
-3.63035	จุล	-0.8285008
-2.785252	จุฬา	-1.404756
-4.443263	จูเนีย	-0.2340427
-3.346353	จ่าย	-0.9508963
-2.27891	ฉัน	-1.206732
-2.657933	ฉาย	-0.9699438
-3.225779	ชอบ	-1.226242
-3.841203	ชะตา	-0.9029726
-3.841203	ชัท	-0.9028239
-3.841203	ชัฟเฟิล	-0.8361028
-3.598165	ชั่ว	-0.8707044
-2.503744	ชั่วโมง	-1.018129
-2.794903	ชั้น	-1.040927
-3.966142	ชานม	-0.7762927
-3.48902	ชาบู	-0.9677503
-3.131509	ชาม	-1.084549
-3.665112	ชาร์จ	-0.8031882
-3.7029	ชาเขียว	-0.7772818
-3.568202	ชีวิต	-1.109104
-3.966142	ชีส	-0.7736046
-2.996105	ชื่อ	-1.151128
-3.7029	ชุด	-0.7072387
-4.443263	ชูกา	-0.2340427
-3.899195	ชูก้า	-0.7781108
-3.382565	ช่วง	-1.355351
-3.7029	ช่วงนี้	-0.69405
-3.382565	ช่วย	-1.07799
-3.540173	ช่อง	-0.7079751
-3.966142	ช้อนชา	-0.7111641
-3.966142	ช้อนโต๊ะ	-0.7780652
-3.63035	ช้า	-1.113105
-3.899195	ซอบิงโก	-0.8412072
-3.899195	ซอลบิง	-0.8438991
-3.7029	ซอส	-0.7779164
-3.63035	ซัก	-0.8415229
-3.899195	ซาวด์แทรก	-0.7781108
-3.899195	ซีท	-0.843538
-3.790051	ซีรีย์	-0.6981319
-4.045323	ซีอิ๊ว	-0.697928
-3.020017	ซื้อ	-0.9185979
-3.966142	ซุเปอร์มาร์เก็ต	-0.7762456
-4.443263	ซูเปอ	-0.3010143
-3.899195	ซูเปอร์จูเนียร์	-0.7781108
-3.465539	ซ้ำ	-0.9320804
-3.7029	ญี่ปุ่น	-0.765302
-3.899195	ฐานข้อมูล	-0.8436558
-3.966142	ดนตรี	-0.7749626
-3.899195	ดรีม	-0.8450432
-3.7029	ดวง	-0.7701831
-3.443263	ดัง	-0.8597175
-4.443263	ดังๆ	-0.2986367
-3.382565	ดับ	-1.07821
-3.212814	ดาว	-0.7380209
-3.966142	ดำ	-0.7773445
-3.899195	ดิจิตอล	-0.8450432
-3.966142	ดิน	-0.7687461
-2.443263	ดี	-1.393039
-3.966142	ดีแทค	-0.7736046
-3.899195	ดึก	-0.8356928
-3.899195	ดื่ม	-0.844965
-2.501255	ดู	-1.04203
-3.252931	ดูด	-1.203791
-3.966142	ดููด	-0.7780652
-2.739972	ด้วย	-1.154556
-3.18799	ตรง	-1.259164
-3.966142	ตรวจสอบ	-0.7775953
-3.966142	ตรา	-0.7779791
-3.63035	ตลาด	-1.111959
-2.337753	ตอน	-1.078564
-3.063052	ตอนนี้	-0.9213833
-4.045323	ตอนเที่ยง	-0.6319828
-3.465539	ตอนเรียน	-1.269349
-3.513844	ตอบ	-0.9538981
-3.966142	ตังค์	-0.7773602
-3.966142	ตัด	-0.7781043
-3.966142	ตับ	-0.7111641
-3.665112	ตัว	-0.7458714
-2.996105	ตัวอย่าง	-1.741453
-3.036723	ตั้ง	-1.412627
-3.790051	ตั้งแต่	-0.694012
-3.121044	ตั๋ว	-0.8748873
-3.346353	ตาม	-1.397549
-3.966142	ตาย	-0.7765991
-3.382565	ตาราง	-0.9177247
-3.63035	ตำ	-1.113701
-3.072195	ติด	-1.211656
-3.7029	ติดต่อ	-0.7654873
-3.899195	ติว	-0.8419093
-3.899195	ติวสอบ	-0.843538
-3.48902	ตี	-0.7106982
-4.045323	ตีห้า	-0.6989309
-3.252931	ตึก	-1.033281
-3.899195	ตึกร้อยปี	-0.8447614
-2.582925	ตื่น	-1.096483
-2.893035	ตู้	-0.9125403
-2.958963	ตู้เย็น	-0.86761
-3.966142	ตู้เย็็น	-0.7635251
-2.610754	ต่อ	-1.242457
-3.18799	ต่อไป	-0.6927183
-3.899195	ต่ำ	-0.8442599
-3.790051	ต้น	-0.6977789
-3.252931	ต้นไม้	-0.7721539
-3.164509	ต้ม	-0.8524075
-2.924749	ต้มยำ	-1.523893
-2.479475	ต้อง	-1.067086
-3.239143	ถอน	-1.206982
-3.744293	ถอย	-0.9997339
-3.841203	ถัด	-0.9008462
-3.7029	ถั่ว	-0.7058545
-3.7029	ถั่วงอก	-0.7107896
-4.045323	ถาม	-0.6988213
-2.918218	ถึง	-0.7646487
-3.63035	ถูก	-0.8348364
-3.131509	ถูกใจ	-1.317032
-3.966142	ถ่ายรูป	-0.7687461
-3.966142	ถ้วยตวง	-0.7780652
-4.045323	ถ้า	-0.6843439
-3.899195	ทน	-0.8450432
-3.899195	ทรานสคริปต์	-0.8356928
-3.899195	ทรี	-0.8435302
-3.32932	ทวง	-1.4139
-3.966142	ทหารไทย	-0.7779086
-3.665112	ทอง	-0.744765
-3.899195	ทองดี	-0.8450432
-3.465539	ทอด	-0.7269488
-3.966142	ทะเล	-0.7781043
-3.966142	ทักษิณ	-0.7755534
-3.899195	ทัศนศึกษา	-0.843538
-3.40187	ทั้ง	-0.897839
-4.045323	ทั้งวัน	-0.6319828
-2.869232	ทั้งหมด	-1.327985
-2.771165	ทาง	-1.281152
-2.257155	ทำ	-1.102091
-3.252931	ทำงาน	-0.7635441
-3.32932	ทำยังไง	-1.347986
-3.072195	ที	-1.313023
-3.899195	ทีม	-0.842752
-3.18799	ทีวี	-1.033258
-1.669111	ที่	-1.267673
-3.899195	ที่นั่ง	-0.7781108
-3.568202	ที่นี่	-0.8997358
-3.899195	ที่ปรึกษา	-0.8446674
-3.966142	ที่พัก	-0.7777911
-3.966142	ที่สุด	-0.7111641
-3.841203	ที่แล้ว	-0.585933
-3.239143	ที่ไหน	-1.139184
-2.735693	ทุก	-1.320895
-4.142233	ทุกวัน	-0.5350728
-3.966142	ทุกวันศุกร์	-0.7111641
-3.540173	ทุกเวลา	-0.7779713
-3.841203	ทุ่ง	-0.8361028
-2.93138	ทุ่ม	-0.7500865
-3.899195	ทูฟาสต์	-0.8450432
-3.899195	ทูสลีบ	-0.8428543
-3.899195	ทูเดย์	-0.8446047
-3.966142	ท้องเสีย	-0.7779164
-2.996105	ธนาคาร	-0.8476281
-3.63035	ธุระ	-0.7685101
-3.7029	นม	-1.036846
-3.252931	นอก	-1.490649
-3.899195	นอกเวลา	-0.8354208
-2.627022	นอน	-1.275793
-3.899195	นอนได้	-0.8445734
-2.286411	นะ	-1.912154
-3.841203	นักร้อง	-0.9030274
-3.899195	นักเรียน	-0.8419093
-3.32932	นักแสดงนำ	-1.408239
-2.341172	นัด	-0.8225981
-3.598165	นับ	-0.8739564
-2.762022	นั่ง	-0.8776831
-3.513844	นั้น	-0.8870178
-2.324337	นาที	-1.13232
-3.153228	นาน	-1.06332
-3.32932	นาฬิกา	-1.347986
-4.045323	นำ	-0.6989309
-3.899195	นิติ	-0.8304719
-2.79981	นี่	-1.180403
-1.836344	นี้	-1.093664
-4.045323	นี้่ิ	-0.697567
-2.762022	นึง	-1.150365
-2.988418	น่า	-1.172114
-2.996105	น่าดู	-1.202557
-3.966142	น้อง	-0.7762456
-3.7029	น้อย	-0.7104422
-2.731456	น้ำ	-0.8543401
-3.966142	น้ำข้น	-0.7111641
-3.7029	น้ำจิ้ม	-1.039864
-4.045323	น้ำตาล	-0.6980849
-4.142233	น้ำปลา	-0.6011749
-3.7029	น้ำเปล่า	-0.774655
-3.540173	น้ำแข็ง	-0.7696648
-3.966142	น้ำใส	-0.7111641
-3.899195	บท	-0.8371457
-3.346353	บน	-1.397713
-3.7029	บริการ	-0.7780573
-3.899195	บรูซ	-0.8450432
-3.899195	บลายบิด	-0.8405514
-3.899195	บลีช	-0.8450432
-3.966142	บลู	-0.7111641
-3.176091	บอก	-1.110037
-3.540173	บะหมี่	-0.9284945
-3.465539	บัญชี	-0.9847258
-3.48902	บัตร	-0.977434
-3.899195	บัว	-0.8450432
-2.592005	บาท	-1.305549
-3.899195	บิงซู	-0.8450432
-3.665112	บิล	-0.8111649
-3.63035	บิวตี้	-1.113842
-3.364082	บี	-0.8231967
-3.899195	บีทีเอส	-0.844918
-3.63035	บีสต์	-1.099317
-3.665112	บุฟเฟต์	-0.7936167
-3.32932	บ่อย	-1.410427
-2.911784	บ่าย	-0.9987563
-1.656867	บ้าง	-2.542106
-2.757521	บ้าน	-1.062763
-3.841203	บ๊ายบาย	-0.8361028
-3.281895	ปฎิทิน	-0.9874848
-3.48902	ประจำ	-0.8172932
-3.966142	ประชาสัมพันธ์	-0.7762456
-2.790051	ประชุม	-0.7196993
-3.966142	ประดับ	-0.7749626
-2.966142	ประตู	-0.8048496
-3.966142	ประตู​	-0.7773445
-3.966142	ประทับ	-0.7781043
-3.966142	ประท้วง	-0.7769524
-3.164509	ประมาณ	-1.287445
-3.346353	ประมูล	-1.39605
-3.966142	ประยุทธ์	-0.7765599
-3.966142	ประวัติ	-0.7753093
-3.32932	ประเทศ	-1.407021
-3.899195	ประเภท	-0.8371457
-3.899195	ปลั๊ก	-0.8442286
-3.966142	ปลา	-0.7769524
-2.996105	ปลาหมึก	-1.746793
-2.518984	ปลุก	-0.9701939
-3.966142	ปวด	-0.7781043
-2.996105	ปอนด์	-0.98771
-3.598165	ปะ	-1.079141
-3.966142	ปัง	-0.7699359
-3.899195	ปังเย็น	-0.8304719
-3.899195	ปาร์ค	-0.8438128
-4.142233	ปาร์ตี้	-0.5350728
-3.32932	ปาล์ม	-0.8993636
-2.529449	ปิด	-1.21656
-3.899195	ปิดเทอม	-0.8439698
-3.364082	ปิ้ง	-0.9243817
-3.252931	ปี	-0.912179
-3.966142	ปู	-0.7777128
-3.48902	ป่าว	-1.188285
-3.899195	ป๊อปคอร์น	-0.843538
-3.465539	ผม	-0.9983456
-3.32932	ผลิต	-1.413248
-3.63035	ผลไม้	-0.8399183
-3.7029	ผัก	-0.7106799
-4.045323	ผักกาด	-0.696561
-3.966142	ผักบุ้ง	-0.7771642
-2.493873	ผัด	-1.267627
-4.045323	ผัดซีอิ๊ว	-0.6942257
-3.32932	ผู้กำกับ	-1.408239
-3.899195	ผู้ช่วย	-0.844448
-3.966142	ผู้ใหญ่	-0.7764499
-3.966142	ผ่าน	-0.7684741
-3.966142	ผ้า	-0.7781043
-3.841203	ฝน	-0.8361028
-3.7029	ฝาก	-1.038551
-3.252931	ฝุ่น	-0.7638273
-3.899195	พร	-0.8433731
-3.899195	พรจากฟ้า	-0.8440717
-3.899195	พระเกี้ยว	-0.8428543
-3.568202	พริก	-0.7478627
-3.7029	พริกน้ำปลา	-0.7720599
-4.045323	พริกไทย	-0.6980849
-3.899195	พรีวิเลจ	-0.8439698
-3.899195	พรีเมี่ยม	-0.8442364
-3.176091	พรุ่ง	-1.272337
-2.319411	พรุ่งนี้	-0.9285413
-3.7029	พฤหัส	-0.7712497
-2.996105	พล	-0.98771
-3.48902	พอ	-0.8190377
-3.841203	พอส	-0.8361028
-3.966142	พอแล้ว	-0.7111641
-3.790051	พะโล้	-0.6305928
-4.142233	พัก	-0.5994622
-3.540173	พัน	-0.709765
-3.899195	พากย์	-0.8446909
-3.966142	พาณิชย์	-0.7762456
-3.899195	พารากราฟ	-0.8450432
-2.93138	พารากอน	-0.8147354
-3.63035	พาราโบลา	-0.8260549
-3.899195	พิกัด	-0.8412072
-3.966142	พิการ	-0.7736046
-2.996105	พิเศษ	-0.8586768
-3.966142	พื้น	-0.7779086
-3.176091	พุธ	-0.5951087
-3.744293	พูด	-0.737174
-3.899195	ฟรี	-0.843538
-3.899195	ฟรุตตี้	-0.8444716
-3.7029	ฟอง	-0.9744055
-3.899195	ฟัง	-0.8412625
-3.966142	ฟัน	-0.7779164
-3.899195	ฟันขาว	-0.8444245
-3.7029	ฟิตเนส	-0.7588219
-3.899195	ฟิฟตี้	-0.8450432
-3.899195	ฟ้า	-0.8440717
-3.176091	ภาค	-0.912348
-3.364082	ภายใน	-0.8211204
-3.346353	ภาษา	-1.113435
-3.899195	มรณะ	-0.8448397
-3.899195	มหาจักรีสิรินธร	-0.8431923
-3.899195	มหิต	-0.8304719
-3.966142	มอง	-0.7762927
-3.899195	มะม่วง	-0.8447144
-3.364082	มะรืน	-1.373834
-4.045323	มักโรนี	-0.6978967
-4.045323	มังสวิรัติ	-0.6965768
-3.252931	มัน	-1.038511
-3.966142	มันฝรั่ง	-0.7781043
-2.44544	มั้ย	-2.231866
-2.640489	มา	-0.8856994
-3.212814	มาก	-0.8981583
-3.966142	มากิ	-0.7763792
-3.465539	มาบุญครอง	-0.830561
-3.176091	มาม่า	-0.840879
-4.443263	มาย	-0.3010143
-4.443263	มารูน	-0.3010143
-3.899195	มารูนไฟฟ์	-0.7781108
-3.966142	มาส	-0.7111641
-3.465539	มิดเทอม	-0.9903867
-3.899195	มิติ	-0.8354208
-3.899195	มิยาบิ	-0.8448945
-3.966142	มิลลิลิตร	-0.7111641
-1.479947	มี	-1.173996
-3.899195	มีนา	-0.5853652
-3.7029	มืด	-0.7777755
-4.045323	มื้อ	-0.6925929
-3.899195	มูฟวี่	-0.842752
-3.899195	ม้้ย	-0.7781108
-3.899195	ย	-0.8450432
-3.899195	ยกคลาส	-0.8449258
-2.988418	ยกเลิก	-0.9421007
-3.899195	ยักษ์	-0.8438128
-2.973441	ยัง	-1.11809
-3.020017	ยังไง	-1.657289
-3.744293	ยา	-0.7351592
-3.239143	ยาก	-1.500603
-3.966142	ยางมะตูม	-0.7753172
-2.766569	ยาว	-1.380217
-3.899195	ยาโยอิ	-0.8405514
-3.966142	ยำ	-0.7770465
-3.899195	ยิน	-0.8449258
-3.200225	ยี่	-1.541864
-3.790051	ยี่สิบ	-0.6968599
-4.045323	ยืนยัน	-0.6974415
-3.540173	ยืม	-1.203047
-3.40187	ยู	-0.6457075
-3.63035	ย่อ	-1.111101
-3.899195	ย่อย	-0.8432081
-3.7029	ย่าง	-0.7674648
-3.899195	ย้าย	-0.843695
-3.18799	รดน้ำ	-0.9885035
-3.011899	รถ	-0.7978535
-3.899195	รวม	-0.843098
-3.513844	รส	-0.7928184
-3.32932	รสชาติ	-1.412627
-3.7029	รหัส	-0.7691776
-3.899195	รหัสวิชา	-0.8368827
-3.899195	รอ	-0.8447927
-3.966142	รองเท้า	-0.7771093
-2.627022	รอบ	-0.9377502
-3.346353	ระหว่าง	-0.844111
-3.899195	รัก	-0.8450432
-3.153228	รับ	-0.8590116
-2.7029	ราคา	-1.266754
-3.63035	รางวัล	-0.8368269
-3.422074	ราดหน้า	-0.7764029
-3.252931	ราย	-1.490923
-3.790051	รายการ	-0.6893009
-3.790051	รายงาน	-0.6955448
-3.899195	รายชื่อ	-0.8449963
-3.540173	รายละเอียด	-1.201278
-3.164509	รายได้	-1.12308
-3.899195	ริม	-0.8446204
-4.443263	ริฮันนา	-0.2340427
-3.899195	ริฮันน่า	-0.7781108
-3.899195	รีบ	-0.8420827
-3.465539	รีวิว	-0.9959432
-3.382565	รึ	-0.9200277
-3.899195	รึยัง	-0.7781108
-3.899195	รุจิศรี	-0.8439305
-3.7029	รุ้ง	-0.7093433
-3.346353	ร้อง	-1.046838
-3.966142	ร้อน	-0.7778225
-2.857802	ร้อย	-1.232268
-2.049688	ร้าน	-1.176537
-3.63035	ลง	-0.8204594
-3.899195	ลงทะเบียน	-0.8431923
-2.905444	ลด	-0.9643742
-3.568202	ลบ	-1.172256
-4.045323	ลวก	-0.6319828
-3.899195	ลอจิค	-0.8450432
-3.899195	ลอย	-0.8450432
-3.252931	ละ	-1.200442
-3.966142	ละลาย	-0.778026
-3.966142	ละหมาด	-0.7736046
-2.748658	ลา	-1.40487
-4.045323	ลางาน	-0.6966082
-3.966142	ลาน	-0.778026
-3.966142	ลิฟท์	-0.7778695
-3.966142	ลิมิต	-0.777658
-3.899195	ลิเนียร์	-0.8450432
-3.899195	ลิโด้	-0.843538
-3.465539	ลืม	-1.277437
-3.899195	ลุก	-0.8435459
-3.63035	ลุง	-0.8356369
-3.966142	ลุ้น	-0.777846
-3.841203	ลูก	-0.9030274
-3.966142	ลูกชิ้นปลา	-0.7771642
-3.18799	ล็อค	-0.8994754
-3.899195	ล็อบสเตอร์	-0.8444245
-3.899195	ล่วง	-0.843954
-3.744293	ล่า	-0.9991619
-3.164509	ล่าสุด	-1.054919
-3.966142	ล้าง	-0.7780652
-3.7029	ล้าน	-1.04028
-3.054097	วอล	-0.9295542
-3.966142	วอล์ค	-0.7759075
-3.422074	วัตถุดิบ	-1.314004
-2.009493	วัน	-1.236657
-3.164509	วันที่	-1.009282
-2.513844	วันนี้	-0.8771284
-3.966142	วันปีใหม่	-0.7684741
-3.7029	วันศุกร์	-0.7569278
-3.346353	วันหยุด	-0.9452052
-3.32932	วันเกิด	-1.412131
-4.045323	วันเสาร์	-0.6925929
-4.045323	วันไหน	-0.6892928
-3.790051	วาน	-0.9396164
-4.045323	วานซืน	-0.696561
-2.362276	วิชา	-0.9800882
-3.513844	วิธี	-0.9515975
-3.422074	วิธีทำ	-0.8821425
-4.142233	วินาที	-0.5350728
-4.443263	วิฟ	-0.2864039
-3.899195	วิลลิส	-0.8432866
-2.918218	วิศวะ	-0.9936857
-3.899195	วิเคราะห์ระบบ	-0.8304719
-3.40187	ว่า	-0.8754597
-2.958963	ว่าง	-0.948077
-3.899195	ศาลา	-0.8450432
-3.072195	ศิลปิน	-1.000185
-3.153228	ศุกร์	-0.7839456
-3.281895	ศูนย์	-0.8966731
-3.966142	สกาย	-0.7781043
-3.899195	สคิป	-0.8448554
-3.899195	สตางค์	-0.8405514
-3.899195	สตาร์บัค	-0.8434438
-3.176091	สตาร์วอร์	-0.8847551
-3.841203	สต็อป	-0.8361028
-3.382565	สถานี	-1.070535
-3.899195	สน	-0.8450432
-3.540173	สปาเก็ตตี้	-0.9292858
-3.48902	สมัคร	-0.9761243
-3.346353	สมาชิก	-0.8266678
-3.899195	สมุด	-0.8449493
-3.899195	สยอง	-0.8450432
-3.7029	สยาม	-0.7777755
-3.465539	สระ	-1.278605
-3.790051	สร้าง	-0.9528396
-3.252931	สร้างขึ้น	-1.491119
-3.966142	สลัดบาร์	-0.7777285
-4.443263	สวิฟ	-0.2340427
-3.899195	สวีท	-0.8450432
-3.32932	สว่าง	-0.8999249
-2.186786	สอง	-0.8219528
-3.966142	สองทุ่ม	-0.7781043
-3.153228	สอน	-1.129428
-2.785252	สอบ	-0.9182478
-3.899195	สอบย่อย	-0.8403537
-3.899195	สะสาง	-0.8354208
-3.7029	สะอาด	-0.7728369
-3.841203	สัก	-0.6506698
-3.63035	สับ	-1.111534
-2.771165	สัปดาห์	-1.669155
-3.045323	สั่ง	-0.9408895
-3.966142	สั่งงาน	-0.7779321
-3.63035	สาขา	-0.774793
-2.265726	สาม	-0.8428587
-3.63035	สามย่าน	-0.8418305
-3.665112	สามารถ	-0.8103076
-3.568202	สาย	-0.7451999
-3.364082	สำหรับ	-0.822307
-3.7029	สิ	-0.9744055
-4.142233	สิงหา	-0.5874339
-2.295587	สิบ	-1.042831
-3.7029	สิบเอ็ด	-0.5598045
-3.7029	สิ้น	-1.040625
-3.7029	สี	-0.7779713
-2.436797	สี่	-0.8549988
-3.7029	สุก	-0.7110636
-4.045323	สุกี้	-0.6988526
-3.7029	สุกๆ	-1.040406
-3.966142	สุขภาพ	-0.775758
-2.714909	สุด	-0.8712949
-3.568202	สุดท้าย	-0.7388715
-3.465539	สุภาพ	-0.9974256
-3.841203	สุ่ม	-0.8992544
-3.63035	สูง	-1.113105
-3.422074	สูตร	-1.320345
-3.790051	สเตย์	-0.6319644
-3.899195	สเตย์วิฟมี	-0.7781108
-2.944952	สเต็ก	-0.8883618
-3.121044	สแควร์	-1.146969
-2.857802	ส่ง	-0.8753475
-3.465539	ส่วน	-1.278213
-3.32932	ส่วนผสม	-1.406758
-3.7029	ส่าย	-1.041056
-3.63035	ส้ม	-1.113842
-3.899195	ส้มตำ	-0.8449493
-2.766569	หก	-1.676845
-1.812835	หนัง	-1.467063
-3.121044	หนังสือ	-1.038795
-3.48902	หนาว	-0.8217514
-3.966142	หนี	-0.7772818
-3.252931	หนี้	-0.7755457
-2.112849	หนึ่ง	-0.9886196
-2.259993	หน่อย	-1.9403
-2.57994	หน้า	-0.9808722
-3.422074	หน้าบ้าน	-0.8146787
-3.32932	หมด	-0.7058451
-3.465539	หมอ	-0.6593089
-3.966142	หมี่กรอบ	-0.7747892
-3.252931	หมื่น	-1.202261
-2.869232	หมู	-0.7782716
-3.281895	หมูสับ	-0.82882
-2.93138	หยุด	-0.784389
-3.011899	หรือ	-1.0616
-3.212814	หลัง	-0.6981967
-3.966142	หลังบ้าน	-0.7111641
-3.899195	หลับ	-0.8445969
-3.899195	หลาย	-0.8432081
-3.09108	หวาน	-0.7609997
-3.252931	หอ	-1.202293
-3.899195	หอกลาง	-0.843538
-4.045323	หอย	-0.6988213
-3.899195	หัก	-0.7781108
-3.32932	หา	-1.123432
-3.966142	หาย	-0.7780652
-3.966142	หิว	-0.7773445
-3.899195	ห่าง	-0.8450432
-2.731456	ห้อง	-1.117547
-3.7029	ห้องครัว	-0.7096641
-3.7029	ห้องนอน	-0.7099481
-3.665112	ห้องน้ำ	-0.8109841
-3.899195	ห้องพัก	-0.844448
-3.899195	ห้องสมุด	-0.843538
-2.224465	ห้า	-0.9393196
-3.568202	ห้าม	-1.17428
-3.899195	อก	-0.8450432
-4.443263	อกหัก	-0.2340427
-3.899195	อด	-0.8450432
-3.364082	อติวงศ์	-0.7575521
-3.966142	อบ	-0.7687461
-2.415913	อยาก	-1.257031
-2.358687	อยู่	-1.268277
-3.465539	อย่า	-1.278605
-3.110825	อย่าง	-1.046694
-3.63035	อย่างน้อย	-1.111582
-3.252931	อย่างไร	-1.125821
-3.054097	อร่อย	-1.157421
-3.966142	อวด	-0.7775013
-3.011899	ออก	-1.058605
-4.142233	ออฟ	-0.3977365
-3.899195	ออสการ์	-0.843538
-3.966142	ออเดอร์	-0.7111641
-2.938113	อะ	-1.149624
-1.72726	อะไร	-1.466079
-3.63035	อะไรบ้าง	-1.046956
-3.252931	อะไรวอล	-0.753815
-3.465539	อักษร	-0.9813491
-3.63035	อังกฤษ	-0.8445107
-3.382565	อังคาร	-0.5927175
-3.7029	อัน	-1.035016
-2.051446	อันดับ	-1.765664
-3.32932	อันเดอร์วอเตอร์เวิล์ด	-0.8541912
-3.899195	อัลกอริทึม	-0.8450119
-3.40187	อัลบั้ม	-0.7872897
-2.595074	อา	-1.306964
-2.825215	อาจารย์	-0.9570135
-2.911784	อาทิตย์	-1.081354
-3.665112	อาบ	-1.078375
-3.422074	อาม	-0.9737566
-4.443263	อาย	-0.3009987
-3.665112	อายุ	-0.8096537
-2.365895	อาหาร	-0.9836121
-3.966142	อาหารตะวันตก	-0.775758
-3.966142	อาหารตะวันออก	-0.775758
-3.966142	อาหารไทย	-0.775758
-3.63035	อาารย์	-1.113755
-3.899195	อินเซปชั่น	-0.8419093
-2.159962	อีก	-1.184278
-4.443263	อีกรอบ	-0.2340427
-4.045323	อีเมล	-0.69697
-4.045323	อีเมล์	-0.69697
-3.267172	อื่น	-0.7560236
-3.252931	อุปกรณ์	-1.195857
-3.63035	อเมซอน	-0.830844
-3.081535	อ่าน	-1.203564
-3.966142	อ้วน	-0.7757108
-3.966142	อ้อม	-0.7778695
-3.63035	อ้อย	-0.8387765
-3.540173	อ้างอิง	-1.202293
-3.841203	อ้าว	-0.8361028
-3.899195	ฮันนี่มูน	-0.8450432
-3.63035	ฮาจิบัง	-0.839094
-3.966142	ฮิจิริ	-0.7763792
-3.966142	เกม	-0.7111641
-3.465539	เกรด	-0.9980077
-3.568202	เกลือ	-0.9016163
-3.7029	เกาหลี	-0.765302
-3.63035	เกาเหลา	-0.8332792
-3.32932	เกิด	-0.7742445
-3.899195	เกิน	-0.8435066
-3.239143	เกี่ยว	-1.503951
-3.7029	เกี้ยว	-0.7772269
-3.899195	เก็บ	-0.8446596
-3.364082	เก้า	-0.9326169
-3.966142	เก๊าท์	-0.7779164
-3.899195	เขต	-0.8408281
-3.966142	เขียน	-0.7749626
-3.899195	เขียนโปรแกรม	-0.8304719
-4.045323	เขียว	-0.6986178
-2.809795	เข้า	-1.007316
-3.966142	เข้าฉาย	-0.7684741
-3.665112	เครดิต	-0.809212
-3.63035	เครป	-0.8448006
-3.966142	เครือ	-0.7699359
-3.297135	เครื่อง	-0.738745
-3.899195	เครื่องคิดเลข	-0.8444245
-3.7029	เครื่องปรุง	-0.7728053
-3.899195	เคร่ง	-0.8405514
-3.899195	เคลียร์	-0.844918
-3.966142	เคล็ดลับ	-0.7757423
-3.899195	เคเอฟซี	-0.8439069
-3.966142	เค็ม	-0.7736046
-2.607572	เงิน	-1.185063
-3.540173	เงียบ	-0.7072939
-3.899195	เงียบๆ	-0.7781108
-3.63035	เจฟเฟอร์	-0.8310461
-3.346353	เจียว	-0.6253309
-3.072195	เจ็ด	-1.020051
-3.899195	เจ็นเอ็ด	-0.8432081
-3.966142	เจ้า	-0.7753093
-3.899195	เจ้าหน้าที่	-0.8450432
-3.252931	เจ๊	-0.9288082
-3.63035	เฉลี่ย	-0.8449023
-3.899195	เชดส์	-0.8450432
-3.899195	เชบออฟยู	-0.7781108
-4.443263	เชพ	-0.3009987
-3.540173	เชื่อม	-0.92891
-3.297135	เช็ค	-0.800707
-3.966142	เช่า	-0.7736046
-2.944952	เช้า	-0.807169
-4.443263	เซ	-0.3010143
-3.899195	เซงเซียมอี๊	-0.8439305
-3.966142	เซนเตอร์	-0.7759075
-3.899195	เซอเคิล	-0.8439305
-3.899195	เซเยส	-0.7781108
-3.899195	เซเว่น	-0.8403537
-3.63035	เซ็นทรัลเวิลด์	-0.8294104
-3.225779	เดอะ	-0.8013349
-3.899195	เดอะเรด	-0.7781108
-3.899195	เดอะเววเวท	-0.7781108
-2.753067	เดือน	-1.231115
-3.18799	เด็ก	-1.095005
-2.88097	เด็ด	-1.265961
-3.32932	เติม	-1.414613
-2.825215	เตือน	-0.7169573
-3.966142	เต็ม	-0.7776893
-3.422074	เต๋อ	-0.9737566
-3.568202	เถอะ	-0.8306454
-4.443263	เทค	-0.3010143
-3.899195	เทพ	-0.8450432
-3.966142	เทมปุระด้ง	-0.7771642
-3.00393	เทอม	-1.268596
-2.804774	เที่ยง	-1.041632
-4.443263	เทเลอร์	-0.3010143
-3.899195	เทเลอร์สวิฟ	-0.7781108
-2.691215	เท่า	-1.754747
-3.7029	เท่ากับ	-1.036648
-2.893035	เท่าไร	-1.486687
-2.407833	เท่าไหร่	-1.968628
-3.899195	เนย	-0.8405514
-3.966142	เนอะ	-0.7111641
-3.63035	เนี่ย	-1.046956
-3.312929	เนื้อ	-1.142206
-3.665112	เบอร์	-0.8127725
-3.7029	เบอร์เกอร์	-0.7747024
-3.18799	เบา	-0.9829292
-3.966142	เบาหวาน	-0.7779164
-3.744293	เบาๆ	-0.9330128
-3.966142	เบื่อ	-0.7111641
-3.744293	เปรี้ยว	-0.73546
-2.966142	เปลี่ยน	-0.8998788
-3.364082	เปล่า	-1.313224
-3.899195	เปอร์เซ็นต์	-0.7781108
-2.324337	เปิด	-0.9743859
-2.268622	เป็น	-1.269362
-3.966142	เป็ปซี่	-0.7779086
-3.18799	เผา	-1.100639
-3.7029	เผ็ด	-0.7733357
-2.996105	เพจ	-1.437043
-3.081535	เพชร	-0.9195498
-2.055873	เพลง	-0.9960936
-3.568202	เพลย์ลิส	-1.109104
-3.110825	เพลลิสต์	-1.629633
-3.63035	เพลิง	-0.6290511
-2.454258	เพิ่ม	-0.9436325
-2.565316	เพื่อน	-1.262246
-3.966142	เฟท	-0.7781043
-3.899195	เฟ้ย	-0.7781108
-2.571107	เมนู	-0.8760993
-3.966142	เมล์	-0.7780339
-3.966142	เมษายน	-0.7684741
-3.966142	เมอร์ลิน	-0.7778225
-3.443263	เมื่อ	-0.754591
-3.899195	เมื่อคืน	-0.8440717
-3.513844	เมื่อวาน	-0.665116
-3.252931	เมื่อไร	-1.424374
-3.239143	เมื่อไหร่	-1.438163
-3.110825	เมเจอร์	-1.049072
-3.966142	เยน	-0.7111641
-4.443263	เยส	-0.2340427
-3.18799	เยอะ	-0.8965062
-2.924749	เย็น	-0.805254
-4.142233	เย็นนี้	-0.6016138
-4.443263	เรด	-0.2340427
-3.899195	เรตติ้ง	-0.8433967
-3.10084	เรา	-0.9769886
-3.121044	เริ่ม	-0.8253124
-3.540173	เรียก	-0.9282044
-3.63035	เรียง	-1.111959
-2.39211	เรียน	-0.8801424
-3.966142	เรียนพิเศษ	-0.7762456
-3.665112	เรือ	-0.8089752
-2.324337	เรื่อง	-1.22111
-3.32932	เรื่องย่อ	-1.408239
-3.568202	เร็ว	-0.6743436
-3.899195	เลคเชอร์	-0.844918
-3.312929	เลย	-1.078556
-3.18799	เลิก	-1.097665
-3.899195	เลิฟ	-0.6018409
-4.045323	เลี้ยง	-0.6988526
-3.142233	เลื่อน	-0.8679848
-3.899195	เลโก	-0.8450432
-2.380681	เล่น	-1.294454
-3.465539	เล่ม	-0.9855518
-2.627022	เวลา	-0.7836588
-4.443263	เววเวต	-0.2340427
-3.899195	เวิคช็อป	-0.843538
-3.7029	เวียดนาม	-0.765302
-3.966142	เวเวอร์	-0.7778225
-3.899195	เศรษฐศาสตร์	-0.8304719
-4.045323	เสนอ	-0.698884
-3.966142	เสริมสวย	-0.7699359
-3.540173	เสร็จ	-0.7759862
-3.966142	เสร็็จ	-0.7111641
-3.312929	เสาร์	-0.6367859
-3.081535	เสียง	-1.134008
-3.899195	เสือ	-0.8449023
-3.48902	เส้น	-0.9098772
-3.540173	เส้นเล็ก	-0.9281729
-3.966142	เส้นใหญ่	-0.7111641
-3.513844	เหมือน	-0.7983016
-3.036723	เหมือนกัน	-1.405088
-3.63035	เหรอ	-0.7778459
-3.899195	เหรียญ	-0.8450432
-3.063052	เหลือ	-0.9257141
-3.966142	เห็ด	-0.7736046
-3.422074	เห็น	-0.817382
-3.225779	เอ	-1.062772
-3.297135	เอกพล	-0.8166812
-3.465539	เอง	-0.8424687
-3.899195	เอช	-0.8442364
-3.966142	เอทีเอม	-0.778026
-3.899195	เอน	-0.8440717
-3.252931	เอฟ	-0.9181627
-3.899195	เอฟเวอรี่ไทม	-0.7781108
-4.443263	เอฟเวอรี่ไทม์	-0.2340427
-3.899195	เอมอาที	-0.844918
-2.390184	เอส	-1.877687
-2.559602	เอา	-0.9047954
-3.899195	เอเอสอาร์	-0.8433338
-3.899195	เอ็กซ์	-0.843538
-3.513844	เอ็ด	-0.9351994
-3.465539	เอ็ม	-0.9837521
-3.899195	เอ็มเค	-0.8405514
-4.443263	เฮท	-0.3008578
-4.045323	แกง	-0.6989309
-3.966142	แกรน	-0.7781043
-3.966142	แกรนด์	-0.7781043
-3.966142	แก้	-0.7780573
-3.252931	แก้ว	-0.8575193
-4.443263	แคนท์	-0.3010143
-3.899195	แคนท์เทคมายอายส์ออฟออฟยู	-0.7781108
-4.045323	แคนเซิล	-0.6969857
-2.911784	แคลอรี่	-0.9469198
-3.841203	แค่	-0.8967129
-4.045323	แค่ไหน	-0.6319828
-3.225779	แจ้ง	-1.517864
-3.540173	แชร์	-1.199376
-3.364082	แดง	-0.8220206
-2.996105	แตงโม	-0.98771
-3.841203	แต่ง	-0.8361028
-3.899195	แถม	-0.8417359
-2.735693	แถว	-1.010257
-3.966142	แท็กซี่	-0.7762456
-3.110825	แนว	-1.159714
-2.785252	แนะนำ	-1.176623
-2.794903	แบบ	-0.8188458
-3.966142	แบบนี้	-0.775136
-3.899195	แบ็ทแมน	-0.844354
-2.905444	แปด	-1.368006
-3.899195	แปป	-0.8443462
-3.966142	แผนที่	-0.7776424
-3.899195	แพง	-0.8442599
-3.899195	แพทย์	-0.7781108
-3.899195	แฟลช	-0.7781108
-2.944952	แรก	-0.8473809
-3.841203	แรนดอม	-0.8992544
-3.841203	แรนด้อม	-0.8992544
-3.966142	แลก	-0.7770779
-3.110825	แลนด์	-0.9432989
-3.899195	และ	-0.8449963
-3.465539	แล็บ	-0.844503
-2.447628	แล้ว	-1.080275
-3.966142	แว่น	-0.7749626
-3.966142	แสง	-0.7779478
-2.604414	แสดง	-1.111906
-3.841203	แสตมป์	-0.8361028
-3.966142	แสน	-0.7770387
-3.568202	แห้ง	-0.6818987
-3.63035	แอนด์	-1.113685
-3.899195	แอม	-0.8450432
-3.899195	แอมปาร์ค	-0.8431923
-3.110825	แอร์	-0.9011359
-3.899195	แอล	-0.8304719
-3.899195	แอลจิบ้า	-0.8419093
-3.899195	แอ็คชั่น	-0.8430351
-3.346353	แฮรี่พอตเตอร์	-1.112627
-2.367716	โกวาจี	-1.003723
-3.899195	โครงสร้าง	-0.8449493
-3.899195	โฆษณา	-0.844354
-3.841203	โจอี้บอย	-0.8361028
-3.899195	โจ๊ก	-0.8449963
-3.966142	โชตะ	-0.7111641
-3.252931	โซน	-1.195857
-3.899195	โซฟา	-0.843538
-3.899195	โดน	-0.8440717
-3.7029	โต๊ะ	-1.04126
-3.899195	โทร	-0.8447614
-3.966142	โทรศัพท์	-0.7749626
-3.540173	โบว์ลิ่ง	-0.7621797
-3.32932	โบ๊ท	-0.8993636
-3.142233	โปรด	-1.241449
-3.7029	โปรเจค	-0.7719726
-3.841203	โปรแกรม	-0.8361028
-3.176091	โปรโมชัน	-0.8144973
-3.312929	โปรโมชั่น	-0.7921833
-2.524185	โพสต์	-1.727425
-3.899195	โฟร์	-0.8435302
-2.009493	โมง	-1.254297
-3.966142	โรคไต	-0.7779164
-2.610754	โรง	-1.232737
-3.899195	โรงหนัง	-0.8447614
-3.899195	โรงอาหาร	-0.843538
-3.899195	โรตี	-0.8449963
-3.422074	โรนัน	-0.9737566
-3.899195	โรแมนติก	-0.8430351
-3.966142	โลลิ	-0.7111641
-3.63035	โลแกน	-0.8412309
-3.966142	โอ	-0.7779635
-3.899195	โอว	-0.843098
-3.899195	โอโตยะ	-0.8405514
-3.081535	ใกล้	-0.8443384
-2.376937	ใคร	-1.218881
-3.899195	ใจ	-0.8354208
-2.911784	ใช่	-1.079398
-3.899195	ใช่ไหม	-0.7781108
-2.562449	ใช้	-1.229385
-3.966142	ใต้	-0.7781043
-2.42001	ใน	-1.023847
-2.944952	ใบ	-1.207639
-2.863479	ใส่	-0.8269167
-3.011899	ใหม่	-0.9590234
-2.620441	ให้	-1.237193
-3.841203	ไกล	-0.8361028
-2.744293	ไก่	-0.772577
-2.574031	ไข่	-1.122566
-3.7029	ไข่ดาว	-0.7072387
-3.540173	ไข่ต้ม	-0.7746551
-2.996105	ไข่เค็ม	-0.7622832
-3.540173	ไข่เจียว	-0.7745131
-3.364082	ไง	-1.028093
-2.135767	ได้	-0.9906242
-3.899195	ได้มั้ย	-0.7781108
-3.899195	ได้ไหม	-0.8432395
-3.966142	ไต	-0.7111641
-2.996105	ไตเติ้ล	-0.98771
-3.02829	ไทย	-0.8395976
-3.966142	ไทยพาณิชย์	-0.7779086
-4.443263	ไนท์	-0.2340427
-2.287927	ไป	-0.8427863
-3.899195	ไผ่	-0.8450041
-3.899195	ไผ่ทอง	-0.8444716
-2.69897	ไฟ	-0.8984209
-3.899195	ไฟนอล	-0.8443853
-3.7029	ไฟฟ้า	-0.7758603
-4.443263	ไฟว์	-0.2340427
-2.369545	ไม่	-1.05507
-3.899195	ไม่ว่าง	-0.8449258
-3.7029	ไม่สุก	-1.038031
-3.899195	ไม้	-0.8448554
-2.996105	ไร	-1.19672
-3.899195	ไรท์ติ้ง	-0.8445656
-3.966142	ไลฟ์	-0.7111641
-3.966142	ไวฟุ	-0.7753093
-3.899195	ไวไฟ	-0.844056
-3.899195	ไส้	-0.8403537
-3.966142	ไส้กรอง	-0.7736046
-1.741264	ไหน	-1.381891
-1.982365	ไหม	-2.21704
-4.045323	ไหม้	-0.6319828
-2.79981	ไหร่	-1.570061
-3.63035	ไห้	-0.8426104
-3.443263	ไอ	-0.7594017
-3.346353	ไอติม	-0.8447537
-3.966142	ไอที	-0.7699359
-3.899195	ไอรอนแมน	-0.8304719
-3.899195	ไอเดีย	-0.8439069
-3.899195	ไอแม็กซ์	-0.8432395
-3.899195	ไอแฮทยูไอเลิฟยู	-0.7781108

\2-grams:
-0.3802112	10 นาที	-0.3469437
-0.3802112	10 เพลง	-0.7293615
-0.07918125	12 นาฬิกา	0.6368221
-0.07918125	18 นาฬิกา	0.6368221
-0.07918125	20 นาที	-0.3469437
-0.04139268	22 นาฬิกา	0.3735807
-0.07918125	5 เพลง	-0.7293615
-0.07918125	6 นาฬิกา	0.6368221
-2.835585	<s> กระแส	0
-3.136615	<s> กล้วย	-0.60206
-2.370698	<s> กะเพรา	-0.9754317
-3.215796	<s> กับข้าว	0
-2.710646	<s> กิน	-0.6216806
-2.800823	<s> กี่	-0.6735737
-3.914766	<s> กู๊ด
-3.136615	<s> กู๊ดไนท์	0
-3.136615	<s> ก่อน	-0.8055895
-2.835585	<s> ก๋วยเตี๋ยว	-0.7231036
-1.152088	<s> ขอ	-0.03406405
-2.738675	<s> ของ	-0.9072562
-3.215796	<s> ขอบคุณ	-0.5862657
-3.215796	<s> ขอโทษ	0
-2.534555	<s> ขั้น	0
-2.516826	<s> ขาย	-0.6421771
-3.136615	<s> ขี้เกียจ	0
-3.215796	<s> ขโมย	0
-3.136615	<s> ข้อสอบ	0
-2.499793	<s> ข้าม	0
-2.069668	<s> ข้าว	-0.86441
-2.659494	<s> คณะ	-0.3590218
-2.370698	<s> คริส	-0.1591529
-3.136615	<s> ครีมเมอรี่	0
-2.437645	<s> ความคิดเห็น	-1.210535
-2.613736	<s> คำนวณ	0
-2.914766	<s> คิด	0
-3.215796	<s> คิดส์ซาเนีย	0
-3.215796	<s> คืน	-0.6812413
-2.659494	<s> คุย	-0.9013353
-2.684317	<s> ค่า	-0.5169927
-2.553038	<s> งาน	-0.7608997
-3.136615	<s> ง่วง	-0.5762527
-2.738675	<s> จดหมาย	-0.9879116
-2.659494	<s> จอง	-0.4357285
-3.215796	<s> จอด	0.5642715
-2.873374	<s> จะ	-0.7588636
-2.452368	<s> จับ	0.05435765
-2.437645	<s> จาม	-0.750999
-3.215796	<s> จุด	-0.6368221
-1.640608	<s> ฉัน	-0.8479276
-3.069668	<s> ชัท	0
-3.069668	<s> ชัฟเฟิล	0
-2.516826	<s> ชั้น	-0.45364
-3.215796	<s> ชาร์จ	-0.5672979
-2.684317	<s> ช่วง	0.1064553
-3.215796	<s> ช่วงนี้	-0.5440681
-2.572343	<s> ช่วย	0
-2.358464	<s> ซื้อ	-0.3734108
-3.215796	<s> ซุเปอร์มาร์เก็ต	0
-2.800823	<s> ดัง	-0.4868812
-3.914766	<s> ดังๆ
-2.914766	<s> ดับ	-0.8073095
-3.069668	<s> ดู	-0.8867875
-2.914766	<s> ดูด	-0.3813407
-3.215796	<s> ตรวจสอบ	0
-3.136615	<s> ตลาด	0.2688453
-2.534555	<s> ตอน	-0.7002316
-2.301982	<s> ตอนนี้	-0.3765419
-3.215796	<s> ตัด	0
-2.409616	<s> ตั้ง	0.1845242
-3.437645	<s> ตี	-0.5351132
-2.835585	<s> ตึก	-0.5026754
-2.136615	<s> ตื่น	-0.4111013
-2.437645	<s> ตู้	-0.9499455
-2.613736	<s> ตู้เย็น	-0.6267335
-3.215796	<s> ตู้เย็็น	0
-3.011676	<s> ต่อ	-0.7579479
-3.215796	<s> ต่อไป	-0.6462637
-2.914766	<s> ต้นไม้	-0.6320232
-3.011676	<s> ต้ม	-0.7459666
-2.312706	<s> ต้มยำ	-0.631807
-2.738675	<s> ต้อง	-0.6553895
-2.516826	<s> ถอน	-0.7995494
-3.312706	<s> ถาม	0
-2.516826	<s> ทวง	0
-2.499793	<s> ทาง	-0.8513832
-2.143914	<s> ทำ	-0.6809328
-1.914766	<s> ที่	-1.106925
-2.768638	<s> ที่นี่	0
-3.136615	<s> ทูฟาสต์	0
-3.215796	<s> ท้องเสีย	0
-2.516826	<s> ธนาคาร	-0.4343692
-2.358464	<s> นอน	-1.198091
-3.069668	<s> นักร้อง	0
-3.136615	<s> นักเรียน	0
-2.088691	<s> นัด	-0.7770776
-2.960524	<s> นับ	-0.60206
-3.215796	<s> นั่ง	-0.7577581
-3.215796	<s> น้อง	0
-3.136615	<s> บรูซ	0
-3.136615	<s> บลีช	0
-2.358464	<s> บอก	0
-3.136615	<s> บัตร	-0.6802878
-3.136615	<s> บัว	0
-3.136615	<s> บิวตี้	0.2688453
-2.768638	<s> บ่าย	-0.6195507
-3.215796	<s> บ้าน	-0.733797
-3.215796	<s> ประชาสัมพันธ์	0
-2.592547	<s> ประชุม	-0.5563025
-2.914766	<s> ประตู	-0.7090704
-3.215796	<s> ประทับ	0
-3.215796	<s> ประท้วง	0
-2.534555	<s> ประมูล	0
-2.312706	<s> ปลาหมึก	0.1354042
-2.166578	<s> ปลุก	-0.6644056
-3.215796	<s> ปวด	0
-2.370698	<s> ปอนด์	-0.1591529
-3.136615	<s> ปังเย็น	0
-2.017139	<s> ปิด	-0.720586
-2.659494	<s> ปี	-0.6726409
-3.011676	<s> ผัด	-0.6061053
-3.312706	<s> ผัดซีอิ๊ว	0
-3.136615	<s> ผู้ช่วย	0
-3.136615	<s> พรจากฟ้า	0
-2.409616	<s> พรุ่ง	0.04830468
-1.738675	<s> พรุ่งนี้	-0.6891031
-2.370698	<s> พล	-0.1591529
-2.684317	<s> พอ	0
-3.069668	<s> พอส	0
-3.215796	<s> พอแล้ว	0
-3.136615	<s> พาราโบลา	-0.60206
-2.738675	<s> พิเศษ	-1.083826
-3.215796	<s> พื้น	0
-3.136615	<s> พุธ	-0.539912
-2.960524	<s> พูด	0
-3.215796	<s> ฟิตเนส	-0.5440681
-2.835585	<s> มะรืน	0.2662679
-3.136615	<s> มัน	-0.7579479
-2.516826	<s> มา	-0.8852757
-3.136615	<s> มิดเทอม	-0.690196
-1.219284	<s> มี	-0.8452914
-3.215796	<s> มืด	-0.5440681
-3.312706	<s> มื้อ	0
-2.215796	<s> ยกเลิก	-0.2032435
-3.312706	<s> ยืนยัน	0
-2.738675	<s> ยืม	0
-3.136615	<s> ย้าย	0
-2.437645	<s> รดน้ำ	0.05958563
-3.215796	<s> รถ	-0.7410095
-2.534555	<s> ระหว่าง	0
-2.738675	<s> รับ	-0.7483642
-2.914766	<s> ราคา	-0.297237
-3.312706	<s> รายการ	-0.4771213
-3.215796	<s> ร้อน	0
-2.057434	<s> ร้าน	-0.8201486
-2.271313	<s> ลด	-0.7035176
-2.768638	<s> ลบ	0
-2.800823	<s> ลา	-0.590737
-3.215796	<s> ลาน	0
-3.136615	<s> ลุก	0
-3.136615	<s> ลุง	-0.60206
-2.437645	<s> ล็อค	-0.327359
-3.215796	<s> ล้าง	0
-1.716109	<s> วัน	-0.7558969
-3.437645	<s> วันที่	-0.5690597
-2.017139	<s> วันนี้	-0.6961221
-3.136615	<s> วันศุกร์	-0.544068
-2.516826	<s> วันเกิด	0
-2.057434	<s> วิชา	-0.6131488
-3.215796	<s> ศูนย์	-0.7043651
-3.215796	<s> สกาย	0
-3.136615	<s> สคิป	0
-2.835585	<s> สตาร์วอร์	-0.594042
-3.069668	<s> สต็อป	0
-3.215796	<s> สถานี	-0.6766936
-3.011676	<s> สร้าง	0
-3.215796	<s> สอง	-0.7727157
-2.613736	<s> สอน	-1.031655
-3.136615	<s> สอบ	-0.7259116
-2.028275	<s> สัปดาห์	0.08009624
-2.914766	<s> สั่ง	-0.9542425
-3.215796	<s> สั่งงาน	0
-2.960524	<s> สิบ	-0.6154239
-3.437645	<s> สี่	-0.5660149
-3.136615	<s> สุภาพ	-0.447158
-3.069668	<s> สุ่ม	0
-3.136615	<s> ส่ง	-0.8140638
-3.136615	<s> ส้มตำ	0
-1.2874	<s> หนัง	-1.632406
-3.215796	<s> หนาว	-0.6532125
-2.960524	<s> หนึ่ง	-0.7289332
-3.136615	<s> หมู	-0.8136895
-2.151338	<s> หยุด	-0.2067207
-2.960524	<s> หลัง	-0.6327288
-2.516826	<s> หา	0
-2.281298	<s> ห้อง	-0.8210369
-3.215796	<s> ห้องครัว	-0.5440681
-3.136615	<s> ห้องพัก	0
-2.914766	<s> ห้า	-0.9942927
-2.768638	<s> ห้าม	0
-1.699922	<s> อยาก	-0.8344436
-2.659494	<s> อย่า	0
-2.960524	<s> อะไร	-0.9946712
-3.136615	<s> อะไรวอล	-0.763428
-2.914766	<s> อัน	0
-3.215796	<s> อันดับ	-0.7371927
-2.516826	<s> อันเดอร์วอเตอร์เวิล์ด	0
-2.467608	<s> อาจารย์	-0.661936
-2.207196	<s> อาทิตย์	-0.628389
-3.215796	<s> อาบ	0.3010299
-2.738675	<s> อาหาร	-1.124608
-1.713369	<s> อีก	-0.5271577
-3.136615	<s> อเมซอน	-0.60206
-2.738675	<s> อ่าน	-1.041393
-2.659494	<s> เกรด	0
-2.835585	<s> เกาเหลา	0
-3.215796	<s> เก๊าท์	0
-2.835585	<s> เครป	0
-3.136615	<s> เคลียร์	0
-3.215796	<s> เคล็ดลับ	0
-3.011676	<s> เงียบ	-0.2676062
-3.136615	<s> เงียบๆ	0
-3.136615	<s> เจฟเฟอร์	-0.60206
-3.136615	<s> เจ้าหน้าที่	0
-2.553038	<s> เช็ค	-0.2783965
-3.011676	<s> เช้า	-0.9023247
-3.136615	<s> เซงเซียมอี๊	0
-2.233525	<s> เดือน	-0.6197889
-2.516826	<s> เติม	0
-2.659494	<s> เตือน	-0.5529315
-2.437645	<s> เทอม	-0.9115781
-2.873374	<s> เที่ยง	-1.024512
-3.312706	<s> เท่าไร	-0.6741464
-2.467608	<s> เบา	-0.4645686
-3.215796	<s> เบาหวาน	0
-2.312706	<s> เปลี่ยน	-0.5835766
-1.721642	<s> เปิด	-0.8037055
-2.835585	<s> เป็น	-0.7283796
-2.370698	<s> เผา	0
-2.437645	<s> เพจ	-1.166851
-3.215796	<s> เพชร	-0.733339
-2.115426	<s> เพลง	-1.089915
-1.901929	<s> เพิ่ม	-0.6223259
-2.516826	<s> เพื่อน	-1.340168
-2.452368	<s> เมนู	-1.093422
-2.835585	<s> เมื่อ	-0.524763
-3.136615	<s> เมื่อคืน	0
-3.069668	<s> เมื่อวาน	-0.4661259
-2.960524	<s> เย็น	-0.9436817
-2.553038	<s> เริ่ม	-0.4648868
-2.835585	<s> เรียก	-0.5824644
-2.835585	<s> เรียง	0
-2.636013	<s> เลิก	-0.2865037
-2.323702	<s> เลื่อน	0
-1.74158	<s> เล่น	-0.9477603
-3.215796	<s> เสร็็จ	0
-2.914766	<s> เสาร์	-0.5282738
-3.136615	<s> เสือ	0
-2.914766	<s> เหลือ	-0.4156032
-1.787661	<s> เอา	-0.1730415
-3.136615	<s> เอเอสอาร์	0
-3.312706	<s> แคนเซิล	0
-2.534555	<s> แจ้ง	0.1205739
-2.370698	<s> แตงโม	-0.1591529
-2.242668	<s> แถว	-0.4322805
-2.039705	<s> แนะนำ	-0.6355153
-3.437645	<s> แปด	0.2491983
-3.069668	<s> แรนดอม	0
-3.215796	<s> แลก	0
-3.136615	<s> แล็บ	-0.69897
-2.136615	<s> แสดง	-0.7551979
-3.215796	<s> แอร์	-0.7293027
-3.136615	<s> แฮรี่พอตเตอร์	-0.7311547
-1.540018	<s> โกวาจี	0
-3.136615	<s> โฆษณา	0
-3.136615	<s> โจ๊ก	0
-3.215796	<s> โซน	-0.7043651
-3.136615	<s> โปรโมชัน	-0.7781512
-1.800823	<s> โพสต์	-0.8495072
-3.215796	<s> โรคไต	0
-2.033952	<s> โรง	-0.8860567
-3.136615	<s> โรตี	0
-3.136615	<s> โลแกน	-0.60206
-1.970284	<s> ใคร	-0.6884002
-2.534555	<s> ใน	-0.7163664
-2.636013	<s> ใส่	-0.5076105
-2.198763	<s> ไข่	-0.6491984
-3.136615	<s> ได้	-0.8391076
-2.370698	<s> ไตเติ้ล	-0.1591529
-2.572343	<s> ไป	-0.7817779
-2.960524	<s> ไฟ	-0.7073624
-3.136615	<s> ไฟนอล	0
-2.346565	<s> ไม่	-0.9363039
-2.659494	<s> ไอติม	-0.39794
-3.136615	<s> ไอรอนแมน	0
-0.09691001	กรอบ ที	0.1371732
-1.10721	กระจาย </s>
-1.10721	กระจาย ทำ	-0.7439372
-1.10721	กระจาย ทำยังไง	0.6368221
-1.10721	กระจาย บ่อย	0.6368221
-0.6300887	กระจาย มี	-0.7655622
-1.10721	กระจาย รสชาติ	0.6368221
-1.10721	กระจาย ล่าสุด	-0.3521825
-1.10721	กระจาย เปรี้ยว	-0.5149099
-1.10721	กระจาย ใช้	-0.7043651
-0.07918125	กระถาง หลัง	-0.7216699
-0.3424227	กระเทียม </s>
-0.4393327	กระเทียม ต้อง	-0.6228334
-0.03476211	กระแส ตอบ	-0.6368221
-0.07918125	กรุงศรี อยู่	-0.61558
-0.3802112	กรุงเทพ สี่	-0.7584966
-0.3802112	กรุงเทพ อยู่	-0.61558
-0.07918125	กรุงไทย ห้า	-0.7720771
-0.4771213	กลับ บีทีเอส	0
-0.7781513	กลับ บ้าน	-0.4021361
-0.4771213	กลับ เอมอาที	0
-0.06694679	กลาง ว่าง	-0.7579479
-0.09691001	กลางวัน หน่อย	0.2083848
-0.3679768	กล้วย ปิ้ง	-0.7311547
-0.3679768	กล้วย ราคา	-0.5905801
-0.4313638	กว่า กัน	-1.114177
-0.2750166	กว่า จะ	-0.8752665
-1.209515	กว่า สี่	-0.7684351
-0.3802112	กสิกร หมื่น	-0.1180993
-0.3802112	กสิกร อยู่	-0.61558
-1.30103	กะเพรา ที	0.1371732
-1.30103	กะเพรา ยังไง	1.025306
-1.30103	กะเพรา หมูสับ	-0.5740313
-1.30103	กะเพรา ใช้	-0.6409781
-0.132238	กะเพรา ไก่	-0.4809141
-0.06694679	กัญชา </s>
-0.2362579	กัน </s>
-1.377185	กัน ก็ได้	-0.5611013
-1.377185	กัน สำหรับ	-0.7359536
-1.076155	กัน อย่างน้อย	0
-1.553276	กัน เถอะ	-0.3399481
-0.9000635	กัน เอง	0
-1.310238	กัน แค่	0
-1.531479	กับ ข้าว	-0.7615096
-1.230449	กับ คริส	-0.7474245
-1.452298	กับ ซอบิงโก	0
-1.230449	กับ ปอนด์	-0.7474245
-1.230449	กับ พล	-0.7474245
-1.628389	กับ พุธ	-0.6585414
-1.531479	กับ มันฝรั่ง	0
-1.151268	กับ ร้าน	-0.8298581
-1.452298	กับ ลา	-0.6146491
-1.452298	กับ ส้ม	0.2688453
-1.452298	กับ หมอ	-0.4707811
-0.8325089	กับ อะไร	-1.337581
-1.452298	กับ เพลง	-0.8401251
-1.230449	กับ แตงโม	-0.7474245
-1.452298	กับ ใคร	-0.8001308
-1.230449	กับ ไข่ดาว	0
-1.531479	กับ ไข่เจียว	-0.6368221
-1.230449	กับ ไตเติ้ล	-0.7474245
-0.07918125	กับข้าว เหลือ	-0.5010334
-0.20412	การ ส่าย	0
-0.60206	การ แจ้ง	0.8195439
-0.9378521	การบ้าน กี่	-0.8409086
-0.9378521	การบ้าน วัน	-0.7689752
-0.3357921	การบ้าน อะไร	-1.379634
-0.6368221	การบ้าน เยอะ	-0.5854607
-0.01703334	การเชื่อมต่อ บ้าง	0.5270346
-0.7132105	กาแฟ กี่	-0.8366785
-0.7923917	กาแฟ อะไร	-0.5364353
-0.7923917	กาแฟ เย็น	-0.7477686
-0.7923917	กาแฟ แก้ว	-0.6268836
-0.7923917	กาแฟ ไม่	-0.7607074
-0.06694679	กำกับ เรื่อง	-0.8160266
-0.1249387	กิจกรรม พรุ่งนี้	-0.5975439
-1.149988	กิน </s>
-1.5302	กิน กะเพรา	-0.460522
-1.83123	กิน กาแฟ	-0.7017629
-1.187777	กิน ข้าว	-0.4133376
-1.83123	กิน ข้าวกะเพรา	-0.6927211
-1.83123	กิน คัทสึด้ง	0
-1.451018	กิน ชาบู	-0.6802878
-1.83123	กิน ชาเขียว	-0.5440681
-1.92814	กิน ดี	-0.163254
-1.83123	กิน ต้ม	-0.7231037
-1.83123	กิน ต้มยำ	0.2028255
-1.92814	กิน บ้าง	1.243038
-1.5302	กิน ปลาหมึก	0.7067953
-1.752048	กิน ผัด	-0.830935
-1.92814	กิน ยา	-0.5026754
-1.83123	กิน ราดหน้า	-0.6766936
-1.451018	กิน สเต็ก	-1.033537
-0.5711583	กิน อะไร	-1.371339
-1.274927	กิน อาหาร	-0.9084237
-1.752048	กิน ฮาจิบัง	-0.60206
-1.752048	กิน เคเอฟซี	0
-1.83123	กิน เบอร์เกอร์	-0.5440681
-1.83123	กิน เส้นเล็ก	-0.3928004
-1.83123	กิน แก้	0
-1.752048	กิน ไก่	-0.8216169
-1.5302	กิน ไข่	-0.8540932
-1.83123	กิน ได้	-0.773165
-1.83123	กิน ไป	-0.7557311
-1.83123	กิน ไหม	0.553913
-0.5740313	กินข้าว ตอนเที่ยง	0
-0.5740313	กินข้าว วัน	-0.6736948
-0.5740313	กินข้าว วันนี้	-0.6701664
-0.07918125	กิโลแคลอรี่ </s>
-0.07918125	กีฬา ได้	-0.7198759
-2.017729	กี่ ข้อ	0
-0.7505571	กี่ คน	-1.543428
-2.017729	กี่ ครั้ง	-0.6621673
-2.19382	กี่ งาน	-0.6553894
-2.318759	กี่ ชั่วโมง	-0.5950362
-2.09691	กี่ ชั้น	-0.7546702
-2.09691	กี่ ช้อนชา	0
-2.017729	กี่ ตัว	-0.5762527
-1.716699	กี่ ที่	-1.109713
-1.89279	กี่ นัด	-0.9371482
-0.8320922	กี่ นาที	-0.8392563
-1.380907	กี่ บาท	-0.7917241
-2.017729	กี่ ปี	-0.7607771
-2.09691	กี่ มิลลิลิตร	0
-1.716699	กี่ ร้าน	-1.103843
-1.619789	กี่ วัน	-0.9049563
-2.017729	กี่ วิชา	-0.8246568
-2.017729	กี่ สาขา	-0.60206
-2.017729	กี่ เปอร์เซ็นต์	0
-2.09691	กี่ เยน	0
-1.453457	กี่ แคลอรี่	-0.8911908
-0.4736607	กี่ โมง	-1.337786
-1.39794	กี่ ใบ	-1.208213
-0.01703334	กี่คน </s>
-0.1205739	กี่โมง </s>
-0.7403627	กี่โมง ดี	-0.309382
-0.1249387	กุมภา มี	-0.5864412
-1.011429	กุ้ง </s>
-1.187521	กุ้ง ทำ	-1.007179
-1.187521	กุ้ง ทำยังไง	0.3735807
-1.488551	กุ้ง น้ำข้น	0
-1.187521	กุ้ง บ่อย	0.3735807
-0.7103994	กุ้ง มี	-0.9156669
-1.187521	กุ้ง รสชาติ	0.3735807
-1.187521	กุ้ง ล่าสุด	-0.6154239
-1.488551	กุ้ง หนึ่ง	-0.7177354
-1.187521	กุ้ง หวาน	-0.9466064
-1.488551	กุ้ง เพิ่ม	-0.7572677
-1.187521	กุ้ง ใช้	-0.9676065
-1.488551	กุ้ง ไม่	-0.7695169
-1.488551	กุ้ง ไหม	0.553913
-0.07918125	กุ้งสับ สาม	-0.7299233
-0.30103	กู๊ด ไนท์
-0.06694679	กู๊ดไนท์ </s>
-0.01703334	ก็ ได้	-0.7430584
-0.3187588	ก็ได้ </s>
-0.6197888	ก็ได้ นะ	-0.02765286
-0.79588	ก็ได้ หน่อย	0.2083848
-0.6927211	ก่อน </s>
-1.060698	ก่อน ซัก	-0.60206
-0.9357591	ก่อน นอน	-0.9106087
-1.060698	ก่อน สอง	-0.8195112
-0.6347291	ก่อน หน้า	-1.125214
-1.060698	ก่อน เรียน	-0.8125107
-1.060698	ก่อน ได้	-0.8330335
-0.06694679	ก่อนนอน </s>
-0.06694679	ก่อนหน้า </s>
-0.05799195	ก่อย </s>
-0.9120448	ก๋วยเตี๋ยว กัญชา	0
-0.9120448	ก๋วยเตี๋ยว ที่	-0.8322818
-0.9120448	ก๋วยเตี๋ยว รอบ	-0.7428404
-0.9120448	ก๋วยเตี๋ยว รุจิศรี	0
-0.9120448	ก๋วยเตี๋ยว อด	0
-0.9120448	ก๋วยเตี๋ยว เรือ	-0.5762527
-0.9120448	ก๋วยเตี๋ยว ใน	-0.757528
-0.4149733	ขนม ปัง	0
-0.3357921	ขนม หวาน	-0.7907404
-0.06694679	ขนาด นั้น	-0.6690068
-0.07918125	ขยะ กี่	-0.7604225
-0.5797836	ขวด </s>
-0.5006024	ขวด ละ	-0.640978
-0.5797836	ขวด หนึ่ง	-0.6898506
-0.06694679	ขวัญ เรื่อง	-0.665871
-2.113943	ขอ กาแฟ	-0.7017629
-2.034762	ขอ ข้อมูล	-0.60206
-2.113943	ขอ ข้าว	-0.7442048
-1.511883	ขอ ข้าวกะเพรา	-0.4973245
-1.812913	ขอ ข้าวผัด	-0.4449366
-1.812913	ขอ ข้าวมันไก่	0
-2.113943	ขอ ข้าวเปล่า	0
-2.113943	ขอ ข้าวเปล่่า	0
-2.113943	ขอ ข้าวไข่ดาว	-0.5440681
-2.113943	ขอ คัตสึด้ง	0
-2.113943	ขอ คิสึเนะอุด้ง	-0.5440681
-2.335792	ขอ งีบ	0
-2.113943	ขอ ชาเขียว	-0.5440681
-1	ขอ ดู	-1.054945
-2.113943	ขอ ต้มยำ	-0.7444682
-1.432702	ขอ นอน	-0.5824644
-2.113943	ขอ น้ำจิ้ม	0.2632414
-2.113943	ขอ น้ำเปล่า	-0.5440681
-1.812913	ขอ น้ำแข็ง	-0.4259687
-2.113943	ขอ บะหมี่	-0.3928004
-2.113943	ขอ ประวัติ	0
-2.113943	ขอ พริกน้ำปลา	-0.5440681
-2.335792	ขอ พัก	0
-2.034762	ขอ พิกัด	0
-1.557641	ขอ รอบ	-1.220328
-2.113943	ขอ ราดหน้า	-0.6766936
-1.335792	ขอ ราย	0
-2.034762	ขอ รายชื่อ	0
-2.113943	ขอ ร้อง	-0.509306
-2.113943	ขอ สปาเก็ตตี้	-0.3928004
-1.511883	ขอ สูตร	0
-1.636822	ขอ สเต็ก	-0.675081
-2.113943	ขอ อะไร	-0.7703407
-2.113943	ขอ อันดับ	-0.7371927
-1.307763	ขอ อีก	-0.5356951
-2.113943	ขอ เกี้ยว	-0.5440681
-2.113943	ขอ เครื่องปรุง	-0.5440681
-2.113943	ขอ เทมปุระด้ง	0
-1.967815	ขอ เนื้อ	-0.30103
-1.771521	ขอ เบอร์	0
-2.113943	ขอ เบอร์เกอร์	-0.5440681
-2.113943	ขอ เป็ปซี่	0
-1.268845	ขอ เพลง	-0.6347251
-2.113943	ขอ เพิ่ม	-0.767835
-1.268845	ขอ เมนู	-0.9991217
-1.733732	ขอ เรื่อง	-1.09478
-1.733732	ขอ เส้น	-0.6802878
-2.113943	ขอ เส้นเล็ก	-0.3928004
-2.113943	ขอ เหมือน	-0.6455257
-1.414973	ขอ เอส	-1.24173
-2.113943	ขอ แบบ	-0.7565401
-2.113943	ขอ แผนที่	0
-2.113943	ขอ แสง	0
-1.733732	ขอ โปรโมชัน	-0.69897
-2.034762	ขอ ใบ	-0.8037053
-2.113943	ขอ ไข่ต้ม	-0.6368221
-2.113943	ขอ ไฟ	-0.7216699
-1.905256	ของ กิน	-0.7716981
-1.604226	ของ คริส	-0.4077948
-1.206286	ของ ค่าย	0
-0.8260748	ของ ฉัน	-1.109334
-2.604226	ของ ซูเปอ
-1.826075	ของ ซูเปอร์จูเนียร์	0
-1.428135	ของ ที่	-1.174357
-1.604226	ของ ปอนด์	-0.4077948
-1.905256	ของ ปาล์ม	-0.4449366
-2.002166	ของ พรุ่งนี้	-0.692938
-1.604226	ของ พล	-0.4077948
-2.002166	ของ มะรืน	0.6812412
-1.604226	ของ มา	-0.974959
-2.604226	ของ มารูน
-1.826075	ของ มารูนไฟฟ์	0
-1.905256	ของ รึ	-0.6812413
-1.400106	ของ วัน	-0.6952196
-2.002166	ของ วันนี้	-0.6895795
-1.282007	ของ ศิลปิน	-0.4827615
-1.826075	ของ สตาร์วอร์	-0.6947122
-2.127105	ของ สัปดาห์	-0.4372498
-1.905256	ของ หวาน	-0.733339
-1.905256	ของ หาย	0
-1.905256	ของ อาม	-0.2808266
-2.002166	ของ เก้า	-0.4600879
-1.905256	ของ เต็ม	0
-1.905256	ของ เต๋อ	-0.2808266
-2.604226	ของ เทเลอร์
-1.826075	ของ เทเลอร์สวิฟ	0
-2.002166	ของ เมื่อวาน	-0.60206
-1.826075	ของ เรื่อง	-0.8259349
-1.826075	ของ เอส	-0.7838284
-1.604226	ของ แตงโม	-0.4077948
-1.826075	ของ แฮรี่พอตเตอร์	-0.3332146
-1.905256	ของ โบ๊ท	-0.4449366
-1.428135	ของ โพสต์	-0.660052
-1.826075	ของ โรงหนัง	0
-1.905256	ของ โรนัน	-0.2808266
-1.428135	ของ ใน	-1.121146
-1.604226	ของ ได้	-0.7072201
-1.604226	ของ ไตเติ้ล	-0.4077948
-0.07918125	ของขวัญ ได้	-0.7198759
-0.07918125	ของหวาน หน่อย	0.1292035
-0.30103	ขอบคุณ </s>
-0.447158	ขอบคุณ มาก	-0.7150995
-0.07918125	ขอโทษ นะ	-0.7705718
-0.763428	ขั้น ก่อนหน้า	0.06694674
-0.6173	ขั้น ตอน	-0.6420146
-0.9852768	ขั้น ต่อ	-0.4057654
-0.763428	ขั้น ต่อไป	-0.6462637
-0.860338	ขั้น ถัด	0.20412
-1.190332	ขาย ข้าวโพด	0
-1.190332	ขาย ด้วย	-0.8197922
-1.269513	ขาย ตับ	0
-1.190332	ขาย ที่	-0.8322818
-1.190332	ขาย ทุก	-0.5521859
-1.190332	ขาย น้ำ	-0.8218267
-1.269513	ขาย บ้าน	-0.5782274
-1.190332	ขาย ผลไม้	-0.60206
-1.190332	ขาย ยัง	-0.696159
-1.269513	ขาย รถ	-0.7410095
-1.190332	ขาย อะไร	-0.6033821
-1.269513	ขาย เรือ	-0.5672979
-1.269513	ขาย ไต	0
-1.190332	ขาย ไม้	0
-0.07918125	ขาว </s>
-0.06694679	ขี้เกียจ สระ	0.4336556
-0.07918125	ขโมย เงิน	-0.4296966
-0.03476211	ข่ายงาน คอมพิวเตอร์	-0.7160033
-0.07918125	ข่าว จัง	-0.4964264
-0.06694679	ข้อ </s>
-0.3679768	ข้อมูล จาก	-0.8340091
-0.3679768	ข้อมูล หนัง	-0.8421131
-0.06694679	ข้อสอบ วิชา	-0.7920695
-0.544068	ข้าง ข้าง	-0.69897
-0.544068	ข้าง มั้ย	1.453755
-0.544068	ข้าง แอม	0
-0.3832167	ข้าม </s>
-0.6173	ข้าม เพลง	-0.8065918
-0.6173	ข้าม ไป	-0.8478209
-1.220762	ข้าว </s>
-1.521792	ข้าว กี่	-0.6933752
-0.3245111	ข้าว ผัด	-1.333463
-0.8685791	ข้าว มัน	-0.936331
-1.424882	ข้าว หน้า	-0.7641856
-1.04467	ข้าว หมู	-1.048677
-1.424882	ข้าว อะไร	-0.7473433
-1.123852	ข้าว ไข่เจียว	-0.4259687
-0.748188	ข้าวกะเพรา กับ	-0.7518224
-0.748188	ข้าวกะเพรา หมู	-0.7521378
-0.2710668	ข้าวกะเพรา หมูสับ	-0.6547178
-0.447158	ข้าวผัด กุ้ง	-0.748993
-0.748188	ข้าวผัด ปู	0
-0.447158	ข้าวผัด หมู	-0.7244664
-0.06694679	ข้าวมัน ไก่	-0.8010304
-0.3802112	ข้าวมันไก่ พิเศษ	-0.7416344
-0.3802112	ข้าวมันไก่ สอง	-0.7672113
-0.07918125	ข้าวเปล่า หนึ่ง	-0.7177354
-0.07918125	ข้าวเปล่่า เพิ่ม	-0.730805
-0.06694679	ข้าวโพด คลุก	0
-0.3802112	ข้าวไข่ดาว สุกๆ	0.2632414
-0.3802112	ข้าวไข่ดาว ไม่สุก	0.2632414
-0.7659168	คณะ บัญชี	0.1549019
-0.2218488	คณะ วิศวะ	-0.5953149
-1.066947	คณะ อักษร	-0.447158
-1.066947	คณะ แพทย์	0
-0.4427037	คน </s>
-1.463893	คน ก่อน	-0.9268194
-1.685742	คน ข้าง	-0.69897
-1.287802	คน ถูกใจ	-1.012235
-1.685742	คน ที่	-0.8249949
-1.685742	คน นั่ง	-0.8205087
-1.764923	คน พิการ	0
-1.685742	คน มั้ย	1.453755
-1.685742	คน ร้อง	-0.5762527
-1.287802	คน อยู่	-0.8546779
-1.287802	คน แชร์	0
-1.685742	คน แล้ว	-0.4450949
-0.8106804	คน แสดง	-1.119884
-1.065953	คน ไหน	-1.404375
-1.764923	คน ไหม	0.553913
-0.05799195	คนนี้ ชื่อ	-0.734298
-0.07918125	ครับ </s>
-0.4637573	ครั้ง </s>
-1.028029	ครั้ง ต่อ	-0.4057654
-0.90309	ครั้ง ถ้า	0
-0.7269987	ครั้ง ที่แล้ว	-0.3679768
-1.028029	ครั้ง หน้า	-0.5937346
-0.2340832	คราว </s>
-0.60206	คราว ที่	-0.5981839
-1.08636	คริส คือ	-0.7017629
-1.08636	คริส ชอบ	-0.2009149
-1.08636	คริส ถูกใจ	-0.3853509
-0.3082086	คริส มี	-0.8606256
-1.08636	คริส เรียน	-0.7322
-1.08636	คริส ใช้	-0.7043651
-0.06694679	ครีมเมอรี่ มี	-0.8437423
-0.8044802	ครึ่ง </s>
-1.40654	ครึ่ง ชั่ว	-0.6232493
-0.3853509	ครึ่ง ชั่วโมง	-0.7974565
-1.70757	ครึ่ง ต้อง	-0.595463
-0.6283889	ครึ่ง นะ	0.2790544
-1.40654	ครึ่ง หน่อย	-0.8004394
-1.582631	ครึ่ง เป็น	-0.6877618
-1.70757	ครึ่ง เรียก	-0.5177391
-0.06694679	คลุก เนย	0
-0.06694679	คล้าย กับ	-0.8294929
-0.09342168	ควร กิน	-1.279225
-0.8893017	ควร นอน	-0.6658016
-0.7132105	ความ ยาว	-0.4101744
-0.4913617	ความ สว่าง	-0.4973245
-0.7923917	ความ สะอาด	0
-1.093422	ความ อ้วน	0
-0.7923917	ความ เย็น	-0.862357
-0.6232493	ความคิดเห็น กี่	-1.119203
-0.3222193	ความคิดเห็น ที่	-0.9525635
-0.6232493	ความคิดเห็น อะไร	-0.9624041
-0.2471546	ความรู้สึก กี่	-1.406445
-1.025306	ความรู้สึก ต่อ	-0.7626943
-0.5481846	ความรู้สึก บ้าง	0.737888
-0.01703334	ความสัมพันธ์ อะไร	-1.173257
-0.04139268	ความแรง น้ำ	-0.9806948
-0.07918125	คอ หมู	-0.7521378
-0.5228788	คอมพิวเตอร์ ที่	-0.8429881
-0.2218488	คอมพิวเตอร์ หนึ่ง	-1.096684
-0.3424227	คะน้า หนึ่ง	-0.7177354
-0.4393327	คะน้า หมู	-0.6782854
-1	คะแนน รีวิว	-0.690196
-1	คะแนน อย่างไร	-0.4860761
-1	คะแนน เท่า	-0.2795548
-0.3802112	คะแนน เท่าไหร่	0.02039313
-0.69897	คะแนน ไอ	-0.7936082
-0.07918125	คัตสึด้ง จาน	-0.6837785
-0.07918125	คัทสึด้ง </s>
-0.07918125	คาโบนาร่า ด้วย	-0.1842092
-0.0211893	คำนวณ แคลอรี่	-0.39794
-0.3802112	คิด ตังค์	0
-0.3802112	คิด เงิน	-0.747117
-0.07918125	คิดส์ซาเนีย อยู่	-0.61558
-0.06694679	คิล บิล	-0.5762527
-0.06694679	คิว ยาว	-0.8176598
-0.3802112	คิสึเนะอุด้ง ชาม	-0.7244664
-0.3802112	คิสึเนะอุด้ง เพิ่ม	-0.767835
-0.9208187	คืน </s>
-0.79588	คืน ทุก	-0.4060579
-0.69897	คืน นี้	-0.7610366
-0.69897	คืน มา	-0.7428755
-0.9208187	คืน มี	-0.5864412
-1.491362	คือ กะเพรา	-0.1972806
-1.491362	คือ ข้าว	-0.4993977
-1.588272	คือ งาน	-0.5790939
-1.491362	คือ ต้มยำ	0.2028255
-0.7923917	คือ นักแสดงนำ	0
-1.491362	คือ ปลาหมึก	0.9700367
-0.9350592	คือ วัน	-0.9183563
-0.7923917	คือ วันที่	-1.00631
-0.9862117	คือ อะไร	-1.153057
-1.111151	คือ แถว	-0.768258
-0.9350592	คือ ใคร	-1.233786
-1.491362	คือ ไข่	-0.5908518
-0.06694679	คุมสอบ ห้อง	-0.7279846
-0.8893017	คุย งาน	-0.6649348
-0.7132105	คุย ดี	-0.8322608
-0.2360892	คุย แบบ	-0.7616798
-0.3590219	คู่ กัน	-0.5259052
-0.3590219	คู่ ชีวิต	0.2730013
-0.03476211	ค่อย ปลุก	-1.084488
-0.07918125	ค่ะ </s>
-0.7160034	ค่า จอด	0.5642715
-0.3357921	ค่า สมัคร	-0.6802878
-0.6368221	ค่า เทอม	-0.7967933
-0.01703334	ค่าย ไหน	-1.14505
-0.09691001	ค่ำ หน่อย	0.2083848
-0.06694679	งด บ้าง	1.09691
-0.5228788	งบ ประมาณ	-0.9542425
-0.8239087	งบ สาม	-0.8372015
-0.8239087	งบ หนึ่ง	-0.8288161
-0.5228788	งบ ห้า	-1.066843
-0.01703334	งบประมาณ เท่าไหร่	0.02039313
-1.0201	งาน </s>
-1.122762	งาน ตอน	-0.5856657
-1.25746	งาน ต่อไป	-0.6210278
-1.696793	งาน บน	0.69897
-1.821732	งาน บ่าย	-0.4711309
-1.599883	งาน บ้าง	1.163857
-1.520702	งาน ประชุม	-0.748188
-1.821732	งาน พรุ่งนี้	-0.5596178
-1.520702	งาน มั้ย	1.453755
-1.122762	งาน วัน	-0.7311985
-1.344611	งาน วันนี้	-0.6208094
-1.696793	งาน วันศุกร์	-0.5228788
-1.821732	งาน หรือ	-0.5376021
-1.696793	งาน หลัง	-0.6543879
-0.6176118	งาน อะไร	-0.5830094
-1.821732	งาน เจ็ด	-0.421604
-1.821732	งาน เตือน	-0.4961019
-1.821732	งาน เที่ยง	-0.5526552
-1.520702	งาน เยอะ	-0.690196
-1.696793	งาน แรก	-0.6734159
-1.696793	งาน ใน	-0.6913506
-0.1249387	งีบ สัก	-0.4259688
-0.4149733	ง่วง </s>
-0.3357921	ง่วง จัง	-0.5633732
-0.07918125	จง เปิด	-0.7704915
-1.0086	จดหมาย </s>
-0.4065402	จดหมาย มา	-0.6542382
-1.0086	จดหมาย ว่าง	-0.5268091
-1.0086	จดหมาย ส่ง	-0.7524459
-1.0086	จดหมาย เปล่า	0.60206
-1.0086	จดหมาย ไหม	0.553913
-0.01703334	จน กว่า	-1.086272
-0.5698753	จบ กัน	-0.8812929
-0.4149733	จบ กี่	-0.8635608
-0.6368221	จบ ก่อน	-0.8055895
-0.06694679	จอ ที่	-0.8304715
-0.2632414	จอง ตั๋ว	-0.5532115
-0.7403627	จอง ที่	-0.8145832
-0.7403627	จอง ได้	-0.8330335
-0.02020339	จอด รถ	-0.6126101
-1.194977	จะ จบ	-0.6342447
-1.194977	จะ ซื้อ	-0.7463439
-1.274158	จะ ตาย	0
-1.496007	จะ ถึง	-0.5852465
-1.274158	จะ นอน	-0.7618837
-1.194977	จะ สอบ	-0.8182259
-1.274158	จะ ออก	-0.5710258
-1.194977	จะ เที่ยง	-0.7631058
-0.8939466	จะ แปด	-0.262685
-0.4960066	จะ ได้	-0.7811158
-0.3212334	จัง </s>
-0.9444827	จัง ปิด	-0.7522928
-0.4673614	จัง เลย	-0.660052
-0.3617278	จัด งาน	-0.9215165
-0.5835766	จัด ที่	-0.7493266
-0.7596679	จัด หน่อย	0.2083848
-0.8538719	จันทร์ </s>
-1.09691	จันทร์ กับ	-0.6886292
-1.09691	จันทร์ ถึง	-0.6586754
-0.9208187	จันทร์ ที่	-0.8405135
-1.09691	จันทร์ นี้	-0.6361566
-0.9208187	จันทร์ พุธ	-0.7829501
-0.8538719	จันทร์ มี	-0.8905009
-1.09691	จันทร์ แปด	0.1522883
-0.01296498	จับ เวลา	-0.6889451
-1.677607	จาก ทักษิณ	0
-1.598426	จาก ที่ไหน	-0.7579479
-0.8994557	จาก ธนาคาร	-0.3521827
-1.899456	จาก บ่าย	-0.4289333
-1.473487	จาก บ้าน	-0.9191289
-1.677607	จาก ประยุทธ์	0
-0.9786369	จาก ประเทศ	0
-1.200486	จาก ปาล์ม	-0.3853508
-1.598426	จาก ฟ้า	0
-1.899456	จาก วัน	-0.5848425
-1.230449	จาก อัลบั้ม	-0.3967804
-1.677607	จาก อาจารย์	-0.6272768
-1.376577	จาก อาม	-0.544068
-1.531479	จาก เครื่อง	-0.79588
-1.376577	จาก เต๋อ	-0.544068
-1.230449	จาก เพลย์ลิส	0
-0.9294189	จาก เพลลิสต์	0.1710705
-1.200486	จาก โบ๊ท	-0.3853508
-1.376577	จาก โรนัน	-0.544068
-0.09691001	จากนี้ มี	-0.6833512
-0.20412	จาน </s>
-0.80618	จาน นึง	-0.9711104
-0.7092699	จาน หนึ่ง	-1.326673
-0.08715018	จาม สแควร์	-0.538391
-0.8653014	จาม เก้า	-0.7311547
-0.3802112	จีน อะไร	-0.5364353
-0.3802112	จีน ไหม	0.553913
-0.5563025	จุด ถ่ายรูป	0
-0.5563025	จุด บริการ	-0.5440681
-0.5563025	จุด ไหน	-0.7048766
-0.3679768	จุล มี	-0.7645158
-0.3679768	จุล อยู่	-0.6825267
-0.5882717	จุฬา </s>
-0.1903317	จุฬา มี	-1.704748
-1.190332	จุฬา เปิด	-0.83589
-0.30103	จูเนีย </s>
-0.6532125	จ่าย ค่า	-0.7311547
-0.6532125	จ่าย ด้วย	-0.8197922
-0.3521825	จ่าย สาม	-0.8291588
-1.786751	ฉัน </s>
-0.7867514	ฉัน กับ	-0.8901249
-0.7867514	ฉัน กิน	-0.8823168
-1.087781	ฉัน คน	-1.375962
-1.087781	ฉัน คือ	-0.7017628
-1.786751	ฉัน ดวง	-0.5440681
-1.087781	ฉัน ติด	-1.104989
-1.230449	ฉัน ตื่น	-0.6605737
-1.786751	ฉัน ที	-0.7303785
-1.786751	ฉัน มาก	-0.7150995
-0.8325089	ฉัน มี	-0.9706004
-1.184691	ฉัน อยาก	-0.8332117
-1.786751	ฉัน เบื่อ	0
-1.786751	ฉัน เปิด	-0.7704915
-2.0086	ฉัน ไป	-0.5979434
-1.348954	ฉาย กี่	-0.6672661
-1.348954	ฉาย ตอน	-0.8257211
-1.348954	ฉาย ทั้งหมด	-0.6488034
-1.348954	ฉาย ที่	-0.8408678
-0.8718323	ฉาย บ้าง	0.6632544
-1.348954	ฉาย ปี	-0.7607771
-0.7291648	ฉาย วัน	-1.33885
-1.348954	ฉาย สิบ	-0.8363241
-1.348954	ฉาย ห้า	-0.825354
-1.348954	ฉาย อยู่	-0.8346745
-0.8718323	ฉาย เรื่อง	-1.099527
-1.348954	ฉาย เวลา	-0.8272478
-1.348954	ฉาย แบบ	-0.8190325
-0.1335389	ชอบ ศิลปิน	-1.122377
-0.6863809	ชอบ เพลง	-0.8065918
-0.05799195	ชะตา ชีวิต	0.2730013
-0.05799195	ชัท ดาว	-0.7591834
-0.05799195	ชัฟเฟิล </s>
-0.3309932	ชั่ว คราว	-0.5228788
-0.39794	ชั่ว โมง	-0.8404614
-0.7036399	ชั่วโมง </s>
-1.49369	ชั่วโมง กี่	-0.6672661
-1.426744	ชั่วโมง ครึ่ง	-0.5688916
-1.49369	ชั่วโมง ค่อย	0.2688453
-1.79472	ชั่วโมง จะ	-0.5879735
-1.368752	ชั่วโมง ตอน	-0.6098853
-1.016569	ชั่วโมง นะ	-0.4613085
-1.669782	ชั่วโมง นี้	-0.6969311
-0.5642715	ชั่วโมง นึง	0.2484464
-1.49369	ชั่วโมง บ้าง	1.09691
-1.79472	ชั่วโมง ประชุม	-0.5493537
-1.49369	ชั่วโมง ปลุก	-0.815643
-1.19266	ชั่วโมง อะ	-0.4169632
-1.49369	ชั่วโมง ได้	-0.7935735
-1.278754	ชั้น </s>
-0.9777236	ชั้น สอง	-0.7155045
-0.9777236	ชั้น สาม	-0.7074935
-0.9777236	ชั้น สี่	-0.7584966
-0.9777236	ชั้น หนึ่ง	-0.7284065
-0.9777236	ชั้น ห้า	-0.7659168
-0.4592097	ชั้น ไหน	-0.9407498
-0.07918125	ชานม ไม่	-0.7607074
-0.1995724	ชาบู งบ	-0.5854607
-0.5797836	ชาบู บ้าง	1.163857
-0.1563472	ชาม </s>
-0.9344984	ชาม นึง	-0.4270424
-0.9344984	ชาม หนึ่ง	-0.6898506
-0.3357921	ชาร์จ บ้าง	1.09691
-0.4149733	ชาร์จ โทรศัพท์	0
-0.3802112	ชาเขียว หวาน	-0.733339
-0.3802112	ชาเขียว เย็น	-0.5991156
-0.02996322	ชีวิต </s>
-0.07918125	ชีส ไหม	0.553913
-0.9927008	ชื่อ ภาค	-0.7763822
-0.6916708	ชื่อ สิบ	-0.8273693
-0.5155795	ชื่อ หนัง	-1.266689
-0.4920984	ชื่อ อะไร	-1.223638
-0.3802112	ชุด </s>
-0.3802112	ชุด หนึ่ง	-0.6898506
-0.30103	ชูกา </s>
-0.06694679	ชูก้า </s>
-0.01930515	ช่วง นี้	-0.8440799
-0.3802112	ช่วงนี้ </s>
-0.3802112	ช่วงนี้ มี	-0.7611269
-0.7781513	ช่วย ด้วย	-0.1050279
-0.1249387	ช่วย ตั้ง	-0.9051729
-0.5563025	ช่อง </s>
-0.5563025	ช่อง สาม	-0.7299233
-0.5563025	ช่อง เจ็ด	-0.7323938
-0.07918125	ช้อนชา </s>
-0.07918125	ช้อนโต๊ะ เท่ากับ	0.2632414
-0.03476211	ช้า สุด	-0.773216
-0.06694679	ซอบิงโก ร้าน	-0.6550574
-0.06694679	ซอลบิง กับ	-0.8294929
-0.3802112	ซอส ขาว	0
-0.3802112	ซอส แดง	-0.6892102
-0.3679768	ซัก ชั่วโมง	-0.7067953
-0.3679768	ซัก สิบ	-0.7589118
-0.06694679	ซาวด์แทรก </s>
-0.06694679	ซีท มั้ย	1.453755
-0.39794	ซีรีย์ ทุก	-0.4060579
-0.39794	ซีรีย์ วันไหน	0
-0.09691001	ซีอิ๊ว ให้	-0.4449366
-1.168792	ซื้อ ของ	-0.694627
-1.071882	ซื้อ ของขวัญ	0
-0.6916708	ซื้อ ตั๋ว	-0.7170682
-1.071882	ซื้อ ยา	-0.5149099
-0.9927008	ซื้อ หนึ่ง	-0.8394209
-1.071882	ซื้อ อุปกรณ์	-0.7043651
-0.5947608	ซื้อ เครื่อง	-0.5034503
-0.07918125	ซุเปอร์มาร์เก็ต อยู่	-0.61558
-0.30103	ซูเปอ จูเนีย
-0.06694679	ซูเปอร์จูเนียร์ </s>
-0.154902	ซ้ำ </s>
-0.69897	ซ้ำ ทุก	-0.6822643
-0.3802112	ญี่ปุ่น อะไร	-0.5364353
-0.3802112	ญี่ปุ่น ไหม	0.553913
-0.06694679	ฐานข้อมูล ต้อง	-0.8318022
-0.07918125	ดนตรี ได้	-0.7198759
-0.06694679	ดรีม ทีม	0
-0.3802112	ดวง ดี	-0.7543187
-0.3802112	ดวง นี้	-0.7694188
-0.5642715	ดัง ดัง	-0.7067953
-0.5642715	ดัง หน่อย	0.06225675
-0.4973246	ดัง อีก	-0.863735
-0.30103	ดังๆ หน่อย
-0.30103	ดับ เพลิง	0
-0.3802112	ดับ ไฟ	-0.6277654
-0.5496719	ดาว </s>
-0.9890046	ดาว ต้อง	-0.6228334
-0.8129134	ดาว ปิด	-0.7500667
-0.9890046	ดาว ยังไง	1.025306
-0.9890046	ดาว หน่อย	0.2083848
-0.9890046	ดาว ใช้	-0.6409781
-0.07918125	ดำ น้ำ	-0.7174534
-0.06694679	ดิจิตอล ลอจิค	0
-0.07918125	ดิน ที่	-0.7700069
-0.1495144	ดี </s>
-1.535716	ดี ดี	-0.8322608
-1.234686	ดี บี	-0.5898255
-1.272475	ดี มั้ย	1.219672
-1.535716	ดี หน่อย	0.06225675
-1.234686	ดี อยาก	-0.8211859
-1.535716	ดี เอ็กซ์	0
-0.07918125	ดีแทค ไหม	0.553913
-0.06694679	ดึก ที่	-0.8304715
-0.06694679	ดื่ม ขวด	-0.6802878
-1.579784	ดู ข่าว	0
-1.579784	ดู ช่วง	0.5835766
-1.676694	ดู ซีรีย์	-0.4771213
-0.8016323	ดู ตัวอย่าง	0.2568263
-1.579784	ดู นี่	-0.7538827
-1.237361	ดู บ้าง	0.8628268
-1.500602	ดู หนัง	-0.8421131
-1.579784	ดู หน่อย	0.1292035
-1.579784	ดู หิว	0
-1.500602	ดู อะไรวอล	-0.763428
-1.433656	ดู เนื้อ	-0.30103
-1.579784	ดู เมนู	-0.7647873
-0.8808136	ดู เอส	-1.24173
-1.579784	ดู โปรโมชั่น	-0.69897
-0.8808136	ดู ได้	-1.363449
-0.8808136	ดู ไหม	-0.08290911
-0.10721	ดูด ฝุ่น	-0.31627
-0.80618	ดูด ห้องครัว	-0.5440681
-0.07918125	ดููด ห้องนอน	-0.5440681
-0.1276788	ด้วย </s>
-1.247155	ด้วย บัตร	-0.4694344
-1.548185	ด้วย พรุ่งนี้	-0.5596178
-1.548185	ด้วย มะรืน	0.7781512
-1.548185	ด้วย มี	-0.5972962
-1.247155	ด้วย ไหม	0.4869663
-0.7900504	ตรง กลาง	0
-0.1058037	ตรง ไหน	-0.6033144
-0.07918125	ตรวจสอบ ตู้	-0.7193733
-0.07918125	ตรา จอด	0.5642715
-0.03476211	ตลาด นัด	-0.7950869
-1.962211	ตอน กี่	-0.4242281
-1.594235	ตอน ตี	-0.4771213
-1.837273	ตอน ต่อ	-0.5026754
-1.962211	ตอน ถัด	0.30103
-1.059121	ตอน นี้	-0.6815379
-1.077605	ตอน บ่าย	-0.2670109
-1.360151	ตอน มิดเทอม	-0.7160033
-1.536243	ตอน สอง	-0.9286557
-1.293205	ตอน สาม	-0.8663671
-0.9921747	ตอน สิบ	-1.058806
-1.837273	ตอน สิบเอ็ด	-0.5392692
-1.661181	ตอน สิ้น	0.1962947
-1.594235	ตอน สี่	-0.5755659
-0.9078538	ตอน หก	-0.4068948
-1.536243	ตอน ห้า	-0.6715842
-1.837273	ตอน เก้า	-0.4600879
-1.293205	ตอน เจ็ด	-0.9956353
-1.235213	ตอน เที่ยง	-0.4459332
-1.661181	ตอน เรียน	-0.823647
-1.208884	ตอน แปด	-0.4040142
-1.360151	ตอน ไหน	-0.7515255
-0.9378521	ตอนนี้ </s>
-1.017033	ตอนนี้ มี	-0.7533144
-1.017033	ตอนนี้ หนัง	-0.6832198
-0.9378521	ตอนนี้ อาจารย์	-0.6942235
-0.3180633	ตอนนี้ เปิด	-1.375248
-0.09691001	ตอนเที่ยง </s>
-0.0234811	ตอนเรียน ที่	-1.245975
-0.1760913	ตอบ รับ	-0.7067953
-0.6532125	ตอบ อีเมล	0
-0.07918125	ตังค์ ด้วย	-0.1842092
-0.07918125	ตัด แว่น	0
-0.07918125	ตับ </s>
-0.3357921	ตัว </s>
-0.4149733	ตัว ลิมิต	0
-0.007825337	ตัวอย่าง หนัง	-1.450122
-0.2388821	ตั้ง ปลุก	-1.04204
-0.4149733	ตั้ง เวลา	-1.259623
-0.39794	ตั้งแต่ วัน	-0.6545745
-0.39794	ตั้งแต่ เที่ยง	-0.6798771
-0.8939466	ตั๋ว ที่	-0.8408678
-0.8939466	ตั๋ว พร	0
-0.8939466	ตั๋ว ราคา	-0.5905801
-0.6307052	ตั๋ว หนัง	-0.8074254
-0.8939466	ตั๋ว แล้ว	-0.8325694
-0.8939466	ตั๋ว แฮรี่พอตเตอร์	-0.3332146
-0.01772877	ตาม สั่ง	-0.5960971
-0.07918125	ตาย แล้ว	-0.3781481
-0.9208187	ตาราง ทั้งหมด	-0.507961
-0.9208187	ตาราง สัปดาห์	-0.4372498
-0.19382	ตาราง เรียน	-0.9253992
-0.03476211	ตำ เจ๊	-0.5177391
-0.4349236	ติด กัน	-0.9415739
-1.213075	ติด ธุระ	-0.359022
-0.2922561	ติด หนี้	-0.2632413
-0.3802112	ติดต่อ ที่	-0.7483885
-0.3802112	ติดต่อ ได้	-0.7198759
-0.06694679	ติว ได้	-0.8185211
-0.06694679	ติวสอบ มั้ย	1.453755
-0.7201593	ตี สอง	-0.694627
-0.845098	ตี สาม	-0.5981297
-0.4771213	ตี สี่	-0.5979572
-0.845098	ตี ห้า	-0.5668956
-0.09691001	ตีห้า วันเสาร์	0
-0.4393327	ตึก จุล	0
-0.7403627	ตึก มหาจักรีสิรินธร	0
-0.4393327	ตึก ไหน	-0.8440198
-0.06694679	ตึกร้อยปี แอร์	-0.7170682
-0.8129134	ตื่น กี่	-1.220108
-1.414973	ตื่น กี่โมง	-0.7579479
-1.414973	ตื่น ช้า	0.2688453
-1.414973	ตื่น ตอน	-0.8257211
-1.414973	ตื่น มา	-0.8262127
-0.9378521	ตื่น สิบ	-1.190799
-0.9378521	ตื่น หก	-0.1415805
-1.414973	ตื่น เช้า	-0.806753
-0.9378521	ตื่น เที่ยง	-1.066146
-1.414973	ตื่น เลย	-0.7403626
-0.8129134	ตื่น แล้ว	-0.2989669
-1.414973	ตื่น ได้	-0.8391076
-0.8976271	ตู้ จดหมาย	-0.6833649
-0.4996871	ตู้ นี้	-1.270267
-1.198657	ตู้ มี	-0.7736155
-1.198657	ตู้ อะไร	-0.5364353
-1.198657	ตู้ เฟท	0
-1.198657	ตู้ เลิฟ	-0.3521825
-1.198657	ตู้ เอ	-0.4101745
-1.198657	ตู้ แกรน	0
-1.198657	ตู้ ไอ	-0.6716959
-0.6499835	ตู้เย็น </s>
-1.127105	ตู้เย็น ของ	-0.7727157
-1.127105	ตู้เย็น ทำ	-0.7021171
-1.127105	ตู้เย็น บ้าง	1.163857
-0.8260748	ตู้เย็น มี	-0.7499571
-1.127105	ตู้เย็น อะไร	-0.7761095
-0.6499835	ตู้เย็น เหลือ	-0.9270022
-0.07918125	ตู้เย็็น มี	-0.7770218
-1.377185	ต่อ นะ	-0.02765286
-1.377185	ต่อ อะ	-0.5103849
-0.4740948	ต่อ อีก	-0.7633166
-1.377185	ต่อ เยอะ	-0.7745169
-1.456366	ต่อ โพสต์	-0.6927211
-1.377185	ต่อ ได้มั้ย	0
-1.377185	ต่อ ได้ไหม	0
-0.4393327	ต่อ ไป	-0.7305689
-0.5818566	ต่อไป </s>
-1.623249	ต่อไป ยาว
-1.146128	ต่อไป วัน	-0.5259372
-1.623249	ต่อไป อยู่
-0.544068	ต่อไป อีก	-0.7438667
-1.623249	ต่อไป เพลง
-0.845098	ต่อไป เรียน	-0.834505
-0.06694679	ต่ำ สุด	-0.7176987
-0.39794	ต้น เดือน	-0.4685211
-0.39794	ต้น ใหม่	-0.3827001
-0.544068	ต้นไม้ </s>
-0.845098	ต้นไม้ จะ	-0.7544134
-0.845098	ต้นไม้ ดู	-0.7665694
-0.845098	ต้นไม้ ตอน	-0.7504383
-0.845098	ต้นไม้ ให้	-0.5241178
-1.021189	ต้ม </s>
-1.021189	ต้ม ต้อง	-0.6228334
-0.4191293	ต้ม มาม่า	-0.6636781
-0.9242793	ต้ม ยำ	0
-0.7201593	ต้ม หน่อย	-0.04688776
-0.04792355	ต้มยำ กุ้ง	-0.2486418
-1.127105	ต้มยำ ทะเล	0
-1.043581	ต้อง ตื่น	-0.6605737
-0.7077885	ต้อง ทำ	-1.030735
-1.821732	ต้อง ปลุก	-0.5875822
-1.520702	ต้อง มี	-0.8371291
-1.520702	ต้อง ลง	-0.60206
-1.599883	ต้อง ละลาย	0
-1.520702	ต้อง สะสาง	0
-1.520702	ต้อง สุภาพ	-0.690196
-0.9186418	ต้อง ส่ง	-0.9737647
-1.821732	ต้อง ออก	-0.3949345
-1.520702	ต้อง อ่าน	-0.544068
-1.599883	ต้อง เปลี่ยน	-0.7439372
-1.520702	ต้อง เป็น	-0.8194601
-1.219672	ต้อง เรียน	-0.823647
-1.520702	ต้อง โดน	0
-0.7937031	ต้อง ใช้	-0.9491868
-0.7403627	ถอน ที่	-0.7493266
-0.1205739	ถอน เงิน	-1.066519
-0.04575749	ถอย หลัง	-0.494426
-0.05799195	ถัด ไป	-0.8478209
-0.3802112	ถั่ว </s>
-0.3802112	ถั่ว ไหม	0.553913
-0.3802112	ถั่วงอก </s>
-0.3802112	ถั่วงอก ชาม	-0.7244664
-0.09691001	ถาม ซ้ำ	-0.60206
-1.198657	ถึง กี่	-0.6003194
-0.8184459	ถึง กี่โมง	-0.4985194
-1.295567	ถึง ตี	-0.5228788
-1.295567	ถึง ตีห้า	0
-1.420506	ถึง บ่าย	-0.5582811
-1.198657	ถึง ยัง	-0.4909095
-1.052529	ถึง วัน	-0.6147259
-0.9945371	ถึง สิบ	-0.6418045
-1.295567	ถึง สิ้น	0.3424227
-1.295567	ถึง สี่	-0.6608319
-1.420506	ถึง หก	0.5351132
-1.295567	ถึง ห้า	-0.6766936
-1.420506	ถึง เวลา	-0.5932266
-0.3679768	ถูก ที่	-0.8304715
-0.3679768	ถูก สุด	-0.7985219
-0.447158	ถูกใจ กี่	-1.119203
-0.2253093	ถูกใจ เพจ	-1.164248
-0.07918125	ถ่ายรูป ที่	-0.6823799
-0.07918125	ถ้วยตวง เท่ากับ	0.2632414
-0.09691001	ถ้า มี	-0.6849852
-0.06694679	ทน รอ	0
-0.06694679	ทรานสคริปต์ ที่	-0.7493266
-0.06694679	ทรี ดี	-0.8212654
-0.01703334	ทวง เงิน	-1.066519
-0.07918125	ทหารไทย หมื่น	-0.1180993
-0.4149733	ทอง </s>
-0.3357921	ทอง มา	-0.8262127
-0.06694679	ทองดี ฟันขาว	0
-0.7403627	ทอด กระเทียม	-0.5026754
-0.7403627	ทอด ต้อง	-0.6228334
-0.5642715	ทอด ที่	-0.7493266
-0.7403627	ทอด หน่อย	0.2083848
-0.07918125	ทะเล น้ำใส	0
-0.07918125	ทักษิณ ห้า	-0.7310513
-0.06694679	ทัศนศึกษา มั้ย	1.453755
-0.90309	ทั้ง วัน	-0.5800259
-0.4259687	ทั้ง หมด	-0.5854607
-0.4259687	ทั้ง เดือน	-0.7002454
-0.09691001	ทั้งวัน </s>
-0.4393327	ทั้งหมด </s>
-0.7103994	ทั้งหมด ของ	-0.9083917
-0.395129	ทั้งหมด ที่	-1.199945
-1.292256	ทาง หนี	0
-1.213075	ทาง เข้า	-0.8164529
-0.8151348	ทาง เชื่อม	0
-0.9120448	ทาง ไป	-0.8283923
-0.2508634	ทาง ไหน	-1.478264
-1.916454	ทำ กะเพรา	-0.6766936
-1.819544	ทำ กับ	-0.7651863
-1.740363	ทำ การบ้าน	-0.7918525
-1.740363	ทำ คน	-0.8360499
-1.518514	ทำ ความ	-0.9650043
-1.819544	ทำ บัตร	-0.4024877
-1.372386	ทำ บ้าง	0.7659167
-1.120574	ทำ ประมาณ	-0.9700368
-1.138303	ทำ ผัด	-0.8497183
-1.120574	ทำ ยาก	0.09017658
-0.9503122	ทำ รายได้	0
-1.916454	ทำ สุกี้	0
-1.916454	ทำ หมู	-0.6782854
-1.916454	ทำ หอย	0
-0.7942381	ทำ อะไร	-0.4860817
-1.819544	ทำ อาหาร	-0.7698152
-1.819544	ทำ อีก	-0.7481112
-1.740363	ทำ เงิน	-0.8267448
-1.819544	ทำ เสร็จ	-0.6368221
-1.916454	ทำ แกง	0
-1.615424	ทำ แบบ	-0.9191289
-1.740363	ทำ ให้	-0.7160033
-0.9622114	ทำ ไข่	-0.922365
-1.819544	ทำ ไง	-0.6812413
-0.845098	ทำงาน </s>
-0.544068	ทำงาน ตอน	-0.7262083
-0.845098	ทำงาน ที่	-0.6823799
-0.9420081	ทำงาน แปด	-0.6737865
-0.7659168	ทำงาน ไร	-0.7444279
-0.01703334	ทำยังไง </s>
-0.06845738	ที </s>
-0.9822713	ที ว่า	-0.6766936
-0.06694679	ทีม เป็น	-0.7827373
-0.2787536	ทีวี </s>
-0.8808136	ทีวี เวลา	-0.7633275
-0.5797836	ทีวี ให้	-0.7873592
-2.314569	ที่ </s>
-1.536418	ที่ คณะ	-0.6377756
-2.314569	ที่ จอง	-0.7579479
-2.314569	ที่ จอด	0.4973247
-2.314569	ที่ จะ	-0.8164529
-2.013539	ที่ จาม	0.4973246
-1.694781	ที่ ฉัน	-1.345892
-1.712509	ที่ ฉาย	-0.7593861
-2.314569	ที่ ต้อง	-0.8318022
-2.314569	ที่ ทำ	-0.8371291
-2.314569	ที่ ทำงาน	-0.69897
-1.168441	ที่ นั่ง	-0.263603
-2.314569	ที่ นิติ	0
-1.178907	ที่ นี่	-0.3686505
-2.393751	ที่ นึง	-0.4270424
-2.314569	ที่ น่า	-0.7993405
-2.314569	ที่ บัญชี	-0.447158
-2.013539	ที่ พารากอน	-0.767105
-2.013539	ที่ มาบุญครอง	-0.4771212
-1.978777	ที่ ยี่	0.3979399
-2.013539	ที่ วิศวะ	-0.6719712
-1.138478	ที่ สอง	-0.9783566
-2.013539	ที่ สอบ	-1.058426
-1.916629	ที่ สั่ง	-1.065817
-1.253872	ที่ สาม	-0.9741533
-2.051328	ที่ สามารถ	0
-1.712509	ที่ สิบ	-0.6894273
-2.615599	ที่ สิบเอ็ด	-0.4881167
-1.479937	ที่ สุด	-0.6161817
-1.247623	ที่ หนึ่ง	-1.005604
-2.314569	ที่ หอ	-0.640978
-2.314569	ที่ ห่าง	0
-2.314569	ที่ อักษร	-0.447158
-2.615599	ที่ เจ็ด	-0.4828736
-2.314569	ที่ เซ็นทรัลเวิลด์	-0.60206
-2.314569	ที่ เท่า	-0.2795548
-2.615599	ที่ เท่าไหร่	0.8333065
-2.393751	ที่ เปลี่ยน	-0.7439372
-2.092721	ที่ เป็น	-1.027337
-2.314569	ที่ เมเจอร์	-0.5247629
-2.314569	ที่ เร็ว	-0.6560417
-2.314569	ที่ เศรษฐศาสตร์	0
-1.393751	ที่ เหมือนกัน	0
-2.490661	ที่ เหลือ	-0.6648902
-2.314569	ที่ เอน	0
-2.051328	ที่ แล้ว	-0.236819
-1.730993	ที่ ใกล้	-0.8364978
-2.013539	ที่ ใน	-1.026373
-1.344533	ที่ ไม่	-1.025618
-0.7035546	ที่ ไหน	-0.9570082
-0.06694679	ที่นั่ง </s>
-0.50515	ที่นี่ ปิด	-0.68312
-0.2498775	ที่นี่ เปิด	-0.6888303
-0.06694679	ที่ปรึกษา เทอม	-0.2653144
-0.07918125	ที่พัก ใกล้	-0.733339
-0.07918125	ที่สุด </s>
-0.9542425	ที่แล้ว </s>
-0.1760913	ที่แล้ว ยาก	0.6600519
-0.7403627	ที่ไหน </s>
-0.1205739	ที่ไหน บ้าง	0.5270346
-1.423246	ทุก ครั้ง	-0.6409781
-1.423246	ทุก รายการ	-0.4771213
-0.3093025	ทุก วัน	-0.6869107
-0.5067919	ทุก อย่าง	-0.6942238
-1.122216	ทุก อาทิตย์	-0.6197888
-0.1249387	ทุกวัน </s>
-0.07918125	ทุกวันศุกร์ </s>
-0.5563025	ทุกเวลา 18	0
-0.5563025	ทุกเวลา 22	0.2632414
-0.5563025	ทุกเวลา 6	0
-0.05799195	ทุ่ง </s>
-0.6931404	ทุ่ม </s>
-1.267172	ทุ่ม ถึง	-0.6764042
-1.09108	ทุ่ม ที่	-0.8408678
-1.39211	ทุ่ม นึง	-0.2509512
-0.7900504	ทุ่ม บ้าง	0.8280647
-1.39211	ทุ่ม มี	-0.5880752
-1.267172	ทุ่ม วัน	-0.6003301
-0.9661418	ทุ่ม วันนี้	-0.6061053
-1.267172	ทุ่ม สี่	-0.6793153
-1.170262	ทุ่ม ออก	-0.7389991
-0.06694679	ทูฟาสต์ ทูสลีบ	0
-0.06694679	ทูสลีบ ไป	-0.8212374
-0.06694679	ทูเดย์ สเต็ก	-0.7646917
-0.07918125	ท้องเสีย ควร	-0.06494081
-1.10721	ธนาคาร กรุงศรี	0
-0.80618	ธนาคาร กรุงเทพ	0
-1.10721	ธนาคาร กรุงไทย	0
-0.80618	ธนาคาร กสิกร	0
-1.10721	ธนาคาร ทหารไทย	0
-1.10721	ธนาคาร ยู	-0.6853972
-1.10721	ธนาคาร หนึ่ง	-0.7734255
-1.10721	ธนาคาร ไทย	-0.739693
-1.10721	ธนาคาร ไทยพาณิชย์	0
-0.3679768	ธุระ </s>
-0.3679768	ธุระ อะไร	-0.8426467
-0.04139268	นม ไหม	0.2906716
-0.01424044	นอก จุฬา	-1.041393
-0.06694679	นอกเวลา บ้าง	1.09691
-1.019596	นอน </s>
-0.2414443	นอน ต่อ	-0.8037052
-0.8782664	นอน อีก	-0.6278828
-1.434569	นอน แล้ว	-0.767736
-1.133539	นอน ได้	-0.7505189
-1.355388	นอน ไม่	-0.834716
-0.06694679	นอนได้ ถึง	-0.7735457
-0.07173176	นะ </s>
-0.9045953	นะ พรุ่งนี้	-1.480552
-1.761928	นะ อาหาร	-0.6986396
-0.05799195	นักร้อง คนนี้	0
-0.06694679	นักเรียน ได้	-0.8391076
-0.01703334	นักแสดงนำ หนัง	-1.116908
-1.413452	นัด </s>
-1.676694	นัด กับ	-0.8294929
-1.609747	นัด กิน	-0.8739496
-1.551755	นัด กินข้าว	-0.3679768
-1.852785	นัด ควร	-0.6389721
-1.852785	นัด ซื้อ	-0.6684807
-1.852785	นัด ดู	-0.6897293
-1.551755	นัด ตอน	-0.5980938
-1.852785	นัด ตั้งแต่	-0.4771213
-1.852785	นัด ต่อ	-0.5026754
-1.852785	นัด ต่อไป	-0.552842
-1.375664	นัด ทั้งหมด	-1.019844
-1.852785	นัด ทำงาน	-0.6462637
-1.551755	นัด ทุก	-0.7922595
-1.852785	นัด นำ	0
-1.250725	นัด ประชุม	-0.8361433
-1.676694	นัด มัน	-0.7579479
-1.977724	นัด มั้ย	1.696793
-1.056905	นัด วัน	-0.7702794
-1.852785	นัด วันนี้	-0.6895795
-1.852785	นัด สาม	-0.6937217
-1.977724	นัด สิบ	-0.5141048
-1.977724	นัด สี่	-0.5660149
-1.551755	นัด สุดท้าย	-0.4227636
-1.551755	นัด ส่ง	-0.6167833
-1.375664	นัด หมอ	-0.3786348
-1.250725	นัด อะไร	-0.988733
-1.977724	นัด เตือน	-0.4961019
-1.454845	นัด เพิ่ม	-0.7572677
-1.551755	นัด เพื่อน	-0.6764042
-1.977724	นัด เย็นนี้	0
-1.852785	นัด เลี้ยง	0
-1.074634	นัด แรก	-0.7719022
-0.2218488	นับ ถอย	0
-0.5740313	นับ เวลา	-0.6625043
-1.259275	นั่ง ตรง	-0.768258
-1.259275	นั่ง ติด	-0.6462637
-1.259275	นั่ง ถูก	-0.60206
-1.338457	นั่ง ทำงาน	-0.7112045
-1.259275	นั่ง ที่	-0.8429881
-1.259275	นั่ง บี	-0.7359536
-1.259275	นั่ง พรีวิเลจ	0
-1.259275	นั่ง พรีเมี่ยม	0
-1.259275	นั่ง มั้ย	1.453755
-1.259275	นั่ง ริม	0
-1.259275	นั่ง สำหรับ	-0.7359536
-1.259275	นั่ง เอ	-0.763428
-0.782154	นั่ง แบบ	-0.7616798
-1.259275	นั่ง แพง	0
-0.2552725	นั้น </s>
-0.4771213	นั้น ก็	0.5698754
-0.2010067	นาที </s>
-1.966924	นาที กลับ	-0.5228788
-1.665894	นาที กี่	-0.6672661
-1.665894	นาที ค่อย	0.2688453
-1.745075	นาที จะ	-0.6112034
-1.364864	นาที นะ	-0.2964982
-1.665894	นาที ปลุก	-0.5570928
-1.966924	นาที มี	-0.5972962
-1.665894	นาที ละ	-0.4860761
-1.665894	นาที อะ	-0.5103849
-1.966924	นาที เตือน	-0.4961019
-1.665894	นาที เที่ยง	-0.7631058
-1.841985	นาที เป็น	-0.6877618
-1.364864	นาที แปด	-0.262685
-1.966924	นาที แล้ว	-0.5958409
-1.665894	นาที ได้	-0.7935735
-0.9138138	นาน </s>
-1.010724	นาน แค่ไหน	0
-0.1503859	นาน ไหม	0.6188538
-0.01703334	นาฬิกา </s>
-0.09691001	นำ เสนอ	0
-0.06694679	นิติ มี	-0.7645158
-0.6627578	นี่ </s>
-0.8846066	นี่ กลับ	-0.3679768
-0.3105753	นี่ มี	-0.9111922
-1.264818	นี่ สิ	0.2632414
-1.264818	นี่ เครือ	0
-0.87076	นี้ </s>
-2.153307	นี้ การบ้าน	-0.7311547
-1.412944	นี้ กิน	-1.395731
-1.78533	นี้ กี่	-0.7016025
-2.153307	นี้ ครั้ง	-0.7549214
-2.153307	นี้ คิว	0
-1.329398	นี้ คือ	-0.9788528
-1.931458	นี้ จัด	-0.7936082
-2.232488	นี้ ฉัน	-0.7709963
-2.08636	นี้ ชื่อ	-0.734298
-2.08636	นี้ ซ้ำ	-0.3802113
-1.931458	นี้ ตอน	-0.6671981
-2.329398	นี้ ต้อง	-0.6042369
-2.153307	นี้ ทำ	-0.8371291
-2.232488	นี้ ที	0.05799192
-1.676185	นี้ บ้าง	0.6632544
-0.5476425	นี้ มี	-0.7245984
-2.232488	นี้ มืด	-0.5440681
-2.08636	นี้ ยาว	-0.5931051
-1.931458	นี้ ราคา	-0.297237
-2.153307	นี้ วัน	-0.5551072
-2.153307	นี้ วิชา	-0.8246568
-2.08636	นี้ ว่าง	-0.3651475
-1.852277	นี้ สอบ	-0.7895807
-2.454337	นี้ ส่ง	-0.5656307
-1.676185	นี้ หนัง	-0.8976018
-1.701009	นี้ หน่อย	-0.009099126
-1.500094	นี้ ออก	-0.440692
-1.852277	นี้ อาารย์	0
-1.676185	นี้ อีก	-0.9134465
-2.931458	นี้ อีกรอบ
-2.153307	นี้ เคร่ง	0
-2.153307	นี้ เท่า	-0.2795548
-2.153307	นี้ เท่าไหร่	-0.8329774
-2.454337	นี้ เป็น	-0.5936811
-2.153307	นี้ เริ่ม	-0.7201593
-2.153307	นี้ เลิก	-0.4114425
-2.153307	นี้ เอา	-0.8297684
-1.551247	นี้ โรง	-1.295682
-1.78533	นี้ ใคร	-0.8774281
-2.153307	นี้ ใช่ไหม	0
-2.08636	นี้ ใหม่	-0.58682
-1.817515	นี้ ให้	-0.8920946
-1.852277	นี้ ไม่	-1.035445
-2.153307	นี้ ไม่ว่าง	0
-2.329398	นี้ ไหม	0.6330943
-0.09691001	นี้่ิ งาน	-0.6901516
-0.2561333	นึง </s>
-0.7490489	นึง นะ	-0.4613085
-1.5272	นึง ปลุก	-0.572605
-1.22617	นึง ละ	-0.4860761
-1.22617	นึง อะ	-0.5103849
-1.22617	นึง ได้	-0.7935735
-0.3309932	น่า กิน	-1.138652
-0.5740313	น่า ดู	-0.9160382
-1	น่า ลง	-0.60206
-1	น่า สน	0
-0.5873367	น่าดู </s>
-0.5873367	น่าดู บ้าง	1.204475
-0.365488	น่าดู ไหม	-0.08290911
-0.07918125	น้อง อยู่	-0.7134873
-0.3802112	น้อย </s>
-0.3802112	น้อย กว่า	-0.7504798
-0.8846066	น้ำ </s>
-1.361728	น้ำ คน	-0.7706243
-0.6627578	น้ำ ชั้น	-0.45364
-1.282547	น้ำ ดื่ม	0
-1.060698	น้ำ พิเศษ	-0.6578574
-1.361728	น้ำ ลูกชิ้นปลา	0
-1.361728	น้ำ อะไร	-0.5364353
-1.361728	น้ำ เนอะ	0
-1.361728	น้ำ เพิ่ม	-0.730805
-1.361728	น้ำ เสร็จ	-0.6368221
-1.282547	น้ำ แล้ว	-0.8196687
-1.361728	น้ำ ไม่	-0.6829478
-1.361728	น้ำ ไหม	0.553913
-0.07918125	น้ำข้น </s>
-0.04139268	น้ำจิ้ม เพิ่ม	-0.735329
-0.09691001	น้ำตาล เท่า	-0.5714841
-0.1249387	น้ำปลา เท่า	-0.4745741
-0.3802112	น้ำเปล่า ขวด	-0.6455257
-0.3802112	น้ำเปล่า หนึ่ง	-0.7734255
-0.5563025	น้ำแข็ง สาม	-0.7715809
-0.5563025	น้ำแข็ง เพิ่ม	-0.7572677
-0.5563025	น้ำแข็ง ไหม	0.553913
-0.07918125	น้ำใส </s>
-0.06694679	บท ไหน	-0.7718233
-0.01772877	บน ปฎิทิน	-0.4676797
-0.3802112	บริการ ดีแทค	0
-0.3802112	บริการ แท็กซี่	0
-0.06694679	บรูซ วิลลิส	0
-0.06694679	บลายบิด ไหม	0.4869663
-0.06694679	บลีช เทพ	0
-0.07918125	บลู </s>
-0.8129134	บอก งาน	-0.8249986
-0.8920946	บอก ฉัน	-0.7709963
-0.1931246	บอก เรื่องย่อ	0
-0.2304489	บะหมี่ น้ำ	-0.7174534
-0.5314789	บะหมี่ แห้ง	-0.6268836
-0.5228788	บัญชี ขาย	-0.8161343
-0.2218488	บัญชี มี	-1.033361
-0.5006024	บัตร สมาชิก	-0.7403626
-0.2373609	บัตร เครดิต	0
-0.06694679	บัว ลอย	0
-0.2808266	บาท </s>
-0.7871061	บาท กิน	-1.262192
-1.468347	บาท คืน	-0.6812413
-0.7871061	บาท ที่	-1.302169
-1.468347	บาท แล้ว	-0.3781481
-1.389166	บาท ใช่	-0.6719713
-0.06694679	บิงซู มะม่วง	0
-0.3357921	บิล ฉาย	-0.8252032
-0.4149733	บิล ด้วย	-0.1842092
-0.03476211	บิวตี้ แอนด์	0
-0.6532125	บี มาก	-0.768258
-0.6532125	บี สิบ	-0.813581
-0.7323937	บี อยู่	-0.61558
-0.6532125	บี เท่าไหร่	0.5902685
-0.06694679	บีทีเอส สถานี	-0.3099848
-0.03476211	บีสต์ มี	-0.8396494
-0.3357921	บุฟเฟต์ ที่	-0.7493266
-0.4149733	บุฟเฟต์ บ้าง	1.163857
-0.01703334	บ่อย ไหม	-0.08290911
-1.386202	บ่าย </s>
-1.386202	บ่าย ถึง	-0.5852465
-0.8219302	บ่าย นี้	-0.789404
-0.5845693	บ่าย สอง	-0.650986
-1.018225	บ่าย สาม	-0.6235287
-0.4831116	บ่าย โมง	-0.2973358
-0.004991945	บ้าง </s>
-2.389166	บ้าง ช่วงนี้	-0.5440681
-2.309985	บ้าง มั้ย	1.453755
-0.4330536	บ้าน </s>
-1.012837	บ้าน บ้าง	0.9006153
-1.313867	บ้าน ปะ	0.3679768
-1.012837	บ้าน มี	-1.016556
-1.109747	บ้าน แล้ว	-0.5542394
-1.313867	บ้าน ให้	-0.5241178
-0.7118073	บ้าน ไหม	0.009845018
-0.05799195	บ๊ายบาย </s>
-0.8893017	ปฎิทิน ตอน	-0.6610379
-0.1903317	ปฎิทิน บ้าง	0.6197888
-0.8893017	ปฎิทิน มี	-0.6731766
-0.60206	ประจำ วัน	-0.7561171
-0.5228788	ประจำ วิชา	-0.7920695
-0.5228788	ประจำ เทอม	-0.2653144
-0.07918125	ประชาสัมพันธ์ อยู่	-0.61558
-0.9420081	ประชุม </s>
-1.544068	ประชุม กี่	-0.4242281
-1.243038	ประชุม ครั้ง	-0.5118833
-1.544068	ประชุม คราว	-0.4771213
-1.419129	ประชุม งาน	-0.6649348
-1.243038	ประชุม จาก	-0.590971
-0.69897	ประชุม ตอน	-0.5905379
-1.544068	ประชุม ทุ่ม	-0.5840867
-1.544068	ประชุม บ่าย	-0.4289333
-1.544068	ประชุม พรุ่งนี้	-0.5975439
-1.544068	ประชุม ล่า	0.39794
-1.243038	ประชุม วัน	-0.4469387
-1.419129	ประชุม วันนี้	-0.6701664
-1.243038	ประชุม วิศวะ	-0.8078499
-1.544068	ประชุม สาม	-0.5765454
-1.544068	ประชุม หนึ่ง	-0.5954294
-0.07918125	ประดับ ได้	-0.7198759
-1.133539	ประตู </s>
-1.133539	ประตู จง	0
-1.133539	ประตู ที	0.05799192
-1.133539	ประตู ทุกเวลา	-0.6368221
-1.133539	ประตู ล็อค	-0.7201594
-0.8325089	ประตู หน่อย	-0.1340379
-0.8325089	ประตู หน้า	-0.9980716
-0.8782664	ประตู เบาๆ	0
-1.133539	ประตู ให้	-0.5241178
-0.07918125	ประตู​ ห้อง	-0.7579479
-0.07918125	ประทับ ตรา	0
-0.07918125	ประท้วง เอา	-0.7654145
-0.5118834	ประมาณ เท่า	-0.5484002
-0.1931246	ประมาณ เท่าไหร่	0.02039313
-0.01772877	ประมูล วิชา	-1.356048
-0.07918125	ประยุทธ์ สี่	-0.7584966
-0.07918125	ประวัติ ของ	-0.7616362
-0.01703334	ประเทศ ไหน	-1.14505
-0.06694679	ประเภท ไหน	-0.5751745
-0.06694679	ปลั๊ก ไฟ	-0.7637931
-0.07918125	ปลา กับ	-0.7651863
-0.007825337	ปลาหมึก ผัด	-1.59692
-1.4843	ปลุก </s>
-1.18327	ปลุก ด้วย	-0.5200012
-0.5903533	ปลุก ตอน	-0.8232132
-1.78533	ปลุก ตี	-0.4259688
-1.007179	ปลุก ทุก	-0.9858415
-1.18327	ปลุก นะ	-0.2964982
-1.4843	ปลุก วันหยุด	-0.7359536
-1.4843	ปลุก สิบ	-0.7571428
-1.78533	ปลุก สี่	-0.5824053
-1.359361	ปลุก หก	0.1829306
-1.78533	ปลุก อีก	-0.598823
-1.78533	ปลุก เก้า	-0.3631779
-1.308209	ปลุก เที่ยง	-0.5042735
-1.007179	ปลุก เรา	-0.6409781
-1.262451	ปลุก แปด	-0.1901343
-1.78533	ปลุก ไป	-0.5979434
-0.07918125	ปวด ฟัน	0
-1.08636	ปอนด์ คือ	-0.7017629
-1.08636	ปอนด์ ชอบ	-0.2009149
-1.08636	ปอนด์ ถูกใจ	-0.3853509
-0.3082086	ปอนด์ มี	-0.8606256
-1.08636	ปอนด์ เรียน	-0.7322
-1.08636	ปอนด์ ใช้	-0.7043651
-0.03218468	ปะ </s>
-0.07918125	ปัง อะไร	-0.5364353
-0.06694679	ปังเย็น มี	-0.8417007
-0.06694679	ปาร์ค ปิด	-0.7500667
-0.1249387	ปาร์ตี้ </s>
-0.2710668	ปาล์ม </s>
-0.748188	ปาล์ม ห้า	-0.7720771
-0.748188	ปาล์ม เท่าไร	0.3010299
-0.7065672	ปิด กี่	-1.366236
-1.238046	ปิด ทีวี	-0.5600955
-0.8578349	ปิด บ้าง	0.544068
-1.061955	ปิด ประตู	-0.5890951
-1.539076	ปิด ประตู​	0
-1.459895	ปิด วัน	-0.7689752
-1.392948	ปิด เสียง	-0.5228788
-1.238046	ปิด แอร์	-0.6112034
-1.392948	ปิด โปรแกรม	0
-0.5848336	ปิด ไฟ	-0.4042494
-0.06694679	ปิดเทอม คือ	-0.7914869
-0.3357921	ปิ้ง ที่	-0.8279243
-0.7160034	ปิ้ง ย่าง	-0.5440681
-0.6368221	ปิ้ง ร้าน	-0.6550574
-0.4522977	ปี นี้	-1.107798
-0.7533277	ปี หน้า	-0.8282845
-0.7533277	ปี แล้ว	-0.4450949
-0.7533277	ปี ไหน	-0.5751745
-0.07918125	ปู พิเศษ	-0.7017629
-0.02482358	ป่าว </s>
-0.06694679	ป๊อปคอร์น มั้ย	1.453755
-0.5228788	ผม ซัก	-0.60206
-0.2218488	ผม แล้ว	-0.4129102
-0.01703334	ผลิต จาก	-1.366776
-0.3679768	ผลไม้ ขาย	-0.8161343
-0.3679768	ผลไม้ ไหม	0.4869663
-0.3802112	ผัก </s>
-0.3802112	ผัก ยังไง	0.9461246
-0.09691001	ผักกาด ทำ	-0.6229358
-0.07918125	ผักบุ้ง จาน	-0.6837785
-1.067722	ผัด กะเพรา	0.2498775
-0.5314789	ผัด กุ้ง	-0.2554816
-1.669782	ผัด ซีอิ๊ว	0
-1.572872	ผัด ผักบุ้ง	0
-1.669782	ผัด มักโรนี	0
-0.9708116	ผัด มาม่า	-0.1196098
-1.669782	ผัด เปรี้ยว	-0.5026754
-1.368752	ผัด ไข่	-0.6614329
-0.5314789	ผัด ไข่เค็ม	0
-1.49369	ผัด ไทย	-0.7985219
-0.09691001	ผัดซีอิ๊ว กี่	-0.6834073
-0.01703334	ผู้กำกับ หนัง	-1.116908
-0.06694679	ผู้ช่วย อาจารย์	-0.8158087
-0.07918125	ผู้ใหญ่ เท่าไหร่	0.6572152
-0.07918125	ผ่าน บ้าง	1.163857
-0.07918125	ผ้า อ้อม	0
-0.05799195	ฝน </s>
-0.04139268	ฝาก ของ	-1.030453
-0.845098	ฝุ่น </s>
-0.845098	ฝุ่น ที่	-0.7483885
-0.544068	ฝุ่น ห้อง	-0.9242793
-0.845098	ฝุ่น เยอะ	-0.7201594
-0.845098	ฝุ่น ใน	-0.7588461
-0.06694679	พร จาก	-0.8340091
-0.06694679	พรจากฟ้า รอบ	-0.8264825
-0.06694679	พระเกี้ยว ไป	-0.8212374
-0.5314789	พริก กับ	-0.7518224
-0.5314789	พริก หนึ่ง	-0.7177354
-0.6283889	พริก เท่า	-0.5714841
-0.3802112	พริกน้ำปลา เพิ่ม	-0.7572677
-0.3802112	พริกน้ำปลา ไหม	0.553913
-0.09691001	พริกไทย เท่า	-0.5714841
-0.06694679	พรีวิเลจ คือ	-0.8101023
-0.06694679	พรีเมี่ยม ราคา	-0.5905801
-0.07463362	พรุ่ง นี้	-0.8103502
-0.9777236	พรุ่ง นี้่ิ	0
-0.7381221	พรุ่งนี้ </s>
-1.559308	พรุ่งนี้ กี่	-0.7764106
-1.860338	พรุ่งนี้ กี่โมง	-0.08354604
-1.207126	พรุ่งนี้ ตื่น	-0.9072458
-1.082187	พรุ่งนี้ ต้อง	-1.005422
-1.985277	พรุ่งนี้ ทั้ง	-0.39794
-1.860338	พรุ่งนี้ ทั้งวัน	0
-1.860338	พรุ่งนี้ ทั้งหมด	-0.5026754
-1.860338	พรุ่งนี้ นี้	-0.6781365
-1.6173	พรุ่งนี้ บ่าย	-0.4526475
-1.763428	พรุ่งนี้ บ้าง	1.163857
-1.031034	พรุ่งนี้ ปลุก	-0.6480401
-1.031034	พรุ่งนี้ มี	-0.6659828
-1.383217	พรุ่งนี้ วิชา	-0.8032058
-1.985277	พรุ่งนี้ ว่าง	-0.5606673
-1.684247	พรุ่งนี้ อ่าน	-0.544068
-1.860338	พรุ่งนี้ เที่ยง	-0.6169778
-1.985277	พรุ่งนี้ เปลี่ยน	-0.3622997
-1.207126	พรุ่งนี้ เรา	-1.074634
-1.684247	พรุ่งนี้ เริ่ม	-0.7201593
-1.684247	พรุ่งนี้ เรียน	-0.823647
-1.684247	พรุ่งนี้ เลิก	-0.4114425
-1.684247	พรุ่งนี้ ใช้	-0.8112397
-1.985277	พรุ่งนี้ ไม่	-0.5756242
-1.860338	พรุ่งนี้ ไหม	0.6330943
-0.2340832	พฤหัส นี้	-0.4991815
-0.60206	พฤหัส เย็น	-0.5653372
-1.08636	พล คือ	-0.7017629
-1.08636	พล ชอบ	-0.2009149
-1.08636	พล ถูกใจ	-0.3853509
-0.3082086	พล มี	-0.8606256
-1.08636	พล เรียน	-0.7322
-1.08636	พล ใช้	-0.7043651
-0.60206	พอ เถอะ	-0.4191293
-0.455932	พอ แล้ว	-0.5030868
-0.60206	พอ ได้	-0.7630175
-0.05799195	พอส </s>
-0.07918125	พอแล้ว </s>
-0.39794	พะโล้ </s>
-0.39794	พะโล้ ใช้	-0.6409781
-0.1249387	พัก ห้า	-0.4898023
-0.5563025	พัน </s>
-0.5563025	พัน บาท	-0.455932
-0.5563025	พัน ล้าน	0.2632414
-0.06694679	พากย์ ไทย	-0.7985219
-0.07918125	พาณิชย์ อยู่	-0.61558
-0.06694679	พารากราฟ ไรท์ติ้ง	0
-0.8219302	พารากอน </s>
-1.085172	พารากอน จ่าย	-0.7359536
-1.085172	พารากอน ตอนนี้	-0.7918525
-1.085172	พารากอน มั้ย	1.453755
-0.7841416	พารากอน มี	-0.8396494
-1.085172	พารากอน อยู่	-0.79416
-1.164353	พารากอน อย่าง	-0.7281773
-1.085172	พารากอน แถว	-0.8209643
-1.085172	พารากอน ได้	-0.8391076
-0.3679768	พาราโบลา มี	-0.8437423
-0.3679768	พาราโบลา วัน	-0.7464581
-0.06694679	พิกัด ร้าน	-0.8349977
-0.07918125	พิการ ไหม	0.553913
-0.7923917	พิเศษ </s>
-1.093422	พิเศษ จาน	-0.7043651
-1.190332	พิเศษ ทุก	-0.4060579
-1.01424	พิเศษ บ้าง	1.09691
-0.7923917	พิเศษ หนึ่ง	-1.022173
-0.6163004	พิเศษ เพิ่ม	-0.735329
-1.093422	พิเศษ ไม่	-0.6829478
-0.07918125	พื้น ฝุ่น	-0.7112045
-0.8081145	พุธ </s>
-1.051152	พุธ ตอน	-0.6762778
-1.176091	พุธ นี้	-0.6005317
-1.176091	พุธ ปลุก	-0.582647
-1.176091	พุธ มี	-0.5880752
-0.8750613	พุธ ศุกร์	-0.7814289
-1.176091	พุธ หน้า	-0.5937346
-1.051152	พุธ ห้า	-0.6766936
-1.176091	พุธ ไป	-0.5979434
-0.4393327	พูด ว่า	-0.4648868
-0.3424227	พูด อีก	-0.7727428
-0.06694679	ฟรี มั้ย	1.453755
-0.06694679	ฟรุตตี้ ขาย	-0.8161343
-0.04139268	ฟอง </s>
-0.06694679	ฟัง เพลง	-0.8282954
-0.07918125	ฟัน ควร	-0.06494081
-0.06694679	ฟันขาว เข้า	-0.8164529
-0.3802112	ฟิตเนส มี	-0.7733875
-0.3802112	ฟิตเนส ไหม	0.553913
-0.06694679	ฟิฟตี้ เชดส์	0
-0.06694679	ฟ้า รอบ	-0.8264825
-0.8346326	ภาค ล่า	0.154902
-0.5336026	ภาค ล่าสุด	-0.690196
-0.8346326	ภาค ว่า	-0.6110148
-0.8346326	ภาค แรก	-0.8061799
-0.8346326	ภาค ใหม่	-0.7976733
-0.6532125	ภายใน วัน	-0.8007025
-0.6532125	ภายใน สัปดาห์	-0.3725244
-0.7323937	ภายใน สาม	-0.7428454
-0.6532125	ภายใน เดือน	-0.6073499
-0.3357921	ภาษา อังกฤษ	0
-0.3357921	ภาษา ไทย	-0.7463439
-0.06694679	มรณะ เดอะ	-0.7704644
-0.06694679	มหาจักรีสิรินธร อยู่	-0.8130454
-0.06694679	มหิต มี	-0.7645158
-0.07918125	มอง ไม่	-0.7695169
-0.06694679	มะม่วง อร่อย	-0.5688916
-0.01848341	มะรืน นี้	-0.553944
-0.09691001	มักโรนี กัน	-0.3217852
-0.09691001	มังสวิรัติ หน่อย	0.2083848
-0.7403627	มัน ปิ้ง	-0.5762527
-0.7403627	มัน อยู่	-0.8130454
-0.2632414	มัน ไก่	-0.7704645
-0.07918125	มันฝรั่ง อบ	0
-0.002187886	มั้ย </s>
-1.107826	มา </s>
-1.070038	มา กิน	-1.090249
-1.371068	มา กี่	-0.8409086
-1.371068	มา ขาย	-0.8161343
-1.450249	มา ดูด	-0.1180993
-1.246129	มา ต้ม	-0.7459666
-1.450249	มา ถึง	-0.7497559
-1.450249	มา ป่าว	0.4771212
-1.070038	มา สี่	-1.090249
-0.8481891	มา ส่ง	-0.6647069
-1.450249	มา หรือ	-0.6481918
-1.371068	มา อ่าน	-0.544068
-1.450249	มา เลย	-0.2340832
-0.9731278	มา ใหม่	-0.88785
-1.450249	มา ไหม	0.553913
-0.3377528	มาก </s>
-0.7900504	มาก กว่า	-0.6441832
-0.8692317	มาก ที่สุด	0
-0.8692317	มาก สำหรับ	-0.6892102
-0.07918125	มากิ เอส	-0.6049079
-0.544068	มาบุญครอง บ้าง	1.09691
-0.544068	มาบุญครอง สอง	-0.8385671
-0.544068	มาบุญครอง อยู่	-0.79416
-0.7096938	มาม่า </s>
-0.4086639	มาม่า กัน	-0.5470946
-1.010724	มาม่า ยังไง	1.025306
-1.010724	มาม่า หน่อย	0.2083848
-1.010724	มาม่า ใช้	-0.6409781
-0.30103	มาย อาย
-0.30103	มารูน ไฟว์
-0.06694679	มารูนไฟฟ์ </s>
-0.07918125	มาส </s>
-0.2218488	มิดเทอม นี้	-1.05113
-0.5228788	มิดเทอม ได้	-0.7935735
-0.06694679	มิติ บ้าง	-0.8429657
-0.06694679	มิยาบิ หมด	-0.748188
-0.07918125	มิลลิลิตร </s>
-1.869457	มี </s>
-1.80731	มี การบ้าน	-0.6922365
-2.10834	มี กี่	-0.7647439
-2.585461	มี กุ้ง	-0.7638168
-2.284431	มี ของ	-1.030453
-1.255047	มี คน	-1.012732
-2.20525	มี ความ	-1.020522
-2.10834	มี ความคิดเห็น	-1.086021
-1.886491	มี ความสัมพันธ์	0
-1.451922	มี งาน	-0.7202631
-1.983401	มี จดหมาย	-0.2747012
-2.585461	มี จุด	-0.6368221
-2.585461	มี ชีส	0
-2.506279	มี ชื่อ	-0.7985219
-2.682371	มี ซีรีย์	-0.4771213
-2.506279	มี ตรง	-0.1799863
-2.506279	มี ตลาด	0.2688453
-2.585461	มี ตัว	-0.5672979
-1.886491	มี ตัวอย่าง	0.3332146
-2.243038	มี ตั๋ว	-0.6179367
-2.506279	มี ติวสอบ	0
-2.585461	มี ตู้	-0.7497559
-2.585461	มี ถั่ว	-0.5440681
-2.506279	มี ทัศนศึกษา	0
-2.506279	มี ทำงาน	-0.763428
-1.39794	มี ที่	-1.166981
-2.585461	มี ที่พัก	0
-2.330188	มี ธุระ	0.1047354
-2.284431	มี นม	0
-1.499101	มี นัด	-0.614854
-2.284431	มี น้ำ	-0.7386428
-2.506279	มี บลายบิด	0
-1.962211	มี ประชุม	-0.5869087
-2.506279	มี ปลั๊ก	0
-2.807309	มี ปาร์ตี้	0
-2.506279	มี ผลไม้	-0.60206
-2.682371	มี ผักกาด	0
-2.585461	มี พริกน้ำปลา	-0.5440681
-2.585461	มี ฟิตเนส	-0.5440681
-2.506279	มี รส	-0.6802878
-2.585461	มี รองเท้า	0
-2.506279	มี รอบ	-0.8264825
-2.20525	มี รีวิว	-0.7160033
-0.7712131	มี ร้าน	-0.7457743
-2.506279	มี ลา	-0.6146491
-2.585461	มี ลิฟท์	0
-2.506279	มี วัน	-0.7689752
-2.029158	มี วันหยุด	-0.5228786
-2.029158	มี วิชา	-1.236861
-2.080311	มี วิธี	0
-2.585461	มี ศูนย์	-0.7043651
-2.585461	มี สลัดบาร์	0
-1.728128	มี สอบ	-0.763428
-2.506279	มี สอบย่อย	0
-2.20525	มี ส่วน	0.1648103
-1.886491	มี ส่วนผสม	0
-1.415199	มี หนัง	-0.9769228
-2.585461	มี หนี้	-0.7132105
-2.20525	มี หมู	-1.048677
-2.284431	มี ห้อง	-0.6118199
-2.506279	มี ห้องน้ำ	-0.5762527
-1.239108	มี อะไร	-0.8865558
-2.585461	มี อา	-0.7310697
-2.585461	มี อาจารย์	-0.7538827
-2.506279	มี อายุ	-0.5762527
-2.506279	มี อเมซอน	-0.60206
-2.585461	มี เครื่องปรุง	-0.5440681
-1.740363	มี เงิน	-0.7831147
-2.506279	มี เจ็นเอ็ด	0
-2.506279	มี เซเว่น	0
-2.585461	มี เพชร	-0.733339
-1.544068	มี เพื่อน	-1.148283
-1.544068	มี เรียน	-0.6705819
-2.682371	มี เวลา	-0.6871517
-2.506279	มี เวิคช็อป	0
-2.585461	มี เห็ด	0
-2.585461	มี เอทีเอม	0
-2.284431	มี เอส	0.06126958
-1.886491	มี แคลอรี่	-1.235938
-2.20525	มี แบบ	-0.7913022
-1.886491	มี โซน	-0.7549214
-2.506279	มี โปรเจค	-0.544068
-2.029158	มี โปรโมชัน	-0.60206
-1.962211	มี โปรโมชั่น	-0.3802114
-2.10834	มี โพสต์	-1.163502
-1.325389	มี ใคร	-0.9002326
-2.506279	มี ไวไฟ	0
-2.506279	มี ไอติม	-0.7403626
-0.4259687	มีนา ตอน	-0.5793678
-0.4259687	มีนา มี	-0.5864412
-0.3802112	มืด จัง	-0.4964264
-0.3802112	มืด มอง	0
-0.09691001	มื้อ นี้	-0.6818553
-0.06694679	มูฟวี่ เป็น	-0.7827373
-0.06694679	ม้้ย </s>
-0.06694679	ย ยักษ์	0
-0.06694679	ยกคลาส ทั้ง	-0.640978
-1.31527	ยกเลิก </s>
-1.31527	ยกเลิก กิจกรรม	0
-0.7923917	ยกเลิก งาน	-0.75576
-0.8893017	ยกเลิก ตาราง	-0.510545
-1.190332	ยกเลิก ทุก	-0.6822643
-0.3452336	ยกเลิก นัด	-0.714947
-0.06694679	ยักษ์ ปิด	-0.7500667
-0.3152704	ยัง </s>
-1.093422	ยัง กิน	-0.7716981
-0.5371192	ยัง ไง	-0.7259117
-1.093422	ยัง ไม่	-0.7695169
-0.008272526	ยังไง </s>
-0.4393327	ยา ตอน	-0.6877721
-0.3424227	ยา ได้	-0.7198759
-0.01378828	ยาก ไหม	-0.1730857
-0.07918125	ยางมะตูม สอง	-0.7727157
-0.2922561	ยาว กี่	-1.638417
-1.213075	ยาว มั้ย	1.453755
-0.9120448	ยาว เท่า	-0.5484002
-0.5762527	ยาว เท่าไหร่	0.00400281
-0.06694679	ยาโยอิ ไหม	0.4869663
-0.07918125	ยำ กุ้ง	-0.748993
-0.06694679	ยิน ว่า	-0.7201593
-0.01258913	ยี่ สิบ	-0.60206
-0.5228788	ยี่สิบ นาที	-0.5925841
-0.30103	ยี่สิบ เมษายน	0
-0.09691001	ยืนยัน เพิ่ม	-0.6086365
-0.02802872	ยืม เงิน	-0.8556654
-0.9378521	ยู </s>
-0.6368221	ยู อร่อย	-0.7907404
-0.7160034	ยู โอ	0
-0.6368221	ยู ไป	-0.8212374
-1.414973	ยู ไอ
-0.03476211	ย่อ ของ	-0.8319366
-0.06694679	ย่อย วิชา	-0.8140638
-0.3802112	ย่าง จาน	-0.6837785
-0.3802112	ย่าง บ้าง	1.163857
-0.06694679	ย้าย งาน	-0.5310936
-0.8920946	รดน้ำ กระถาง	0
-0.2900346	รดน้ำ ต้นไม้	-0.5166298
-0.8920946	รดน้ำ หน้าบ้าน	-0.6716959
-0.8920946	รดน้ำ หลังบ้าน	0
-1.08636	รถ </s>
-1.08636	รถ ชั้น	-0.5928193
-0.7061486	รถ ดับ	-0.8129134
-1.007179	รถ บ้าง	1.09691
-1.08636	รถ ราคา	-0.5236334
-1.08636	รถ เมล์	0
-1.08636	รถ ได้	-0.7198759
-0.7853298	รถ ไฟฟ้า	0
-0.06694679	รวม ตอน	-0.8054391
-0.6766936	รส จัด	-0.6159958
-0.5006024	รส อะไร	-0.7677057
-0.5006024	รส ใหม่	-0.7976733
-0.01703334	รสชาติ เป็น	-1.378942
-0.4771213	รหัส หก	0.4382032
-0.30103	รหัส อะไร	-0.7677057
-0.06694679	รหัสวิชา อะไร	-0.7677057
-0.06694679	รอ นาน	-0.3114954
-0.07918125	รองเท้า ให้	-0.762357
-1.155336	รอบ </s>
-1.377185	รอบ กี่	-0.6672661
-1.076155	รอบ จุฬา	-0.9843094
-0.9000635	รอบ ฉาย	-1.216107
-1.377185	รอบ ดึก	0
-1.377185	รอบ ต่อ	-0.6488034
-0.6782148	รอบ นอก	0
-1.377185	รอบ นะ	-0.02765286
-1.377185	รอบ นี้	-0.7003916
-1.377185	รอบ สอง	-0.8195112
-1.377185	รอบ สาม	-0.8195834
-1.076155	รอบ หก	0.02322984
-1.377185	รอบ ไหน	-0.8425779
-0.6690068	ระหว่าง ก๋วยเตี๋ยว	-0.7883704
-0.6690068	ระหว่าง ซอลบิง	0
-0.6690068	ระหว่าง สเต็ก	-0.7646917
-0.6690068	ระหว่าง ส้ม	0.2688453
-0.06694679	รัก โรแมนติก	0
-0.8653014	รับ ของ	-0.8385671
-0.6434527	รับ ฝาก	0
-0.9444827	รับ สมัคร	-0.6455257
-0.9444827	รับ เงิน	-0.4296966
-0.8653014	รับ เรื่อง	-0.665871
-0.8653014	รับ เหรียญ	0
-0.6457245	ราคา กี่	-0.9587741
-1.361728	ราคา ผู้ใหญ่	0
-1.361728	ราคา เด็ก	-0.7168816
-0.3531277	ราคา เท่า	0.3326291
-0.8302489	ราคา เท่าไหร่	0.180094
-1.361728	ราคา ไหน	-0.7048766
-0.3679768	รางวัล ออสการ์	0
-0.3679768	รางวัล อะไร	-0.6033821
-0.6812412	ราดหน้า หมี่กรอบ	0
-0.6812412	ราดหน้า เพิ่ม	-0.730805
-0.6812412	ราดหน้า เส้นเล็ก	-0.6268836
-0.6812412	ราดหน้า เส้นใหญ่	0
-0.01424044	ราย ชื่อ	-0.895666
-0.39794	รายการ ที่	-0.6975645
-0.39794	รายการ แจ้ง	0.8195439
-0.39794	รายงาน พรุ่งนี้	-0.6883585
-0.39794	รายงาน วันนี้	-0.6701664
-0.06694679	รายชื่อ สาขา	-0.60206
-0.02802872	รายละเอียด ของ	-1.187605
-0.8239087	รายได้ ต่ำ	0
-0.8239087	รายได้ สูง	0.2688453
-0.20412	รายได้ เท่าไหร่	0.02039313
-0.06694679	ริม ว่าง	-0.7579479
-0.30103	ริฮันนา </s>
-0.06694679	ริฮันน่า </s>
-0.06694679	รีบ อีก	-0.7827847
-0.5228788	รีวิว เท่าไหร่	0.5902685
-0.2218488	รีวิว เป็น	-1.079412
-0.3187588	รึ ป่าว	0.1413292
-0.69897	รึ ยัง	-0.4909095
-0.69897	รึ เปล่า	0.60206
-0.06694679	รึยัง </s>
-0.06694679	รุจิศรี เมนู	-0.7768332
-0.3802112	รุ้ง </s>
-0.3802112	รุ้ง มั้ย	1.520702
-0.3357921	ร้อง </s>
-0.3357921	ร้อง ไห้	0
-0.07918125	ร้อน จัง	-0.5970966
-0.7269987	ร้อย </s>
-1.20412	ร้อย กิโลแคลอรี่	0
-0.2403322	ร้อย บาท	-0.3881801
-0.90309	ร้อย เพชร	-0.9466064
-1.638489	ร้าน </s>
-1.676278	ร้าน กาแฟ	-0.6225817
-1.462398	ร้าน ก๋วยเตี๋ยว	-0.6462637
-1.676278	ร้าน ขนม	0
-2.018701	ร้าน ของ	-0.7727157
-1.638489	ร้าน ขาย	-0.7851001
-1.939519	ร้าน ข้าวมัน	0
-1.939519	ร้าน ทูเดย์	0
-1.939519	ร้าน บุฟเฟต์	-0.5762527
-1.939519	ร้าน มิยาบิ	0
-1.939519	ร้าน ย	0
-1.939519	ร้าน ยาโยอิ	0
-1.939519	ร้าน สตาร์บัค	0
-1.462398	ร้าน สเต็ก	-0.7181156
-2.018701	ร้าน หนังสือ	-0.6564177
-1.939519	ร้าน ห้า	-0.8377988
-0.6923646	ร้าน อาหาร	-0.7834097
-1.939519	ร้าน ฮาจิบัง	-0.60206
-1.939519	ร้าน เจฟเฟอร์	-0.60206
-1.939519	ร้าน เด็ด	-0.8093824
-2.018701	ร้าน เปิด	-0.7704915
-2.018701	ร้าน เสริมสวย	0
-1.939519	ร้าน เอ็มเค	0
-1.939519	ร้าน โอโตยะ	0
-1.638489	ร้าน ใน	-0.8218267
-0.4504988	ร้าน ไหน	-1.179315
-2.018701	ร้าน ไอที	0
-1.939519	ร้าน ไอเดีย	0
-0.3679768	ลง บ้าง	1.09691
-0.3679768	ลง มี	-0.8193046
-0.06694679	ลงทะเบียน อยู่	-0.8346745
-0.5797836	ลด ความ	-0.5235788
-1.181844	ลด ความแรง	0.2632414
-1.102662	ลด ป๊อปคอร์น	0
-1.102662	ลด ราคา	-0.7337902
-1.102662	ลด สำหรับ	-0.7359536
-1.102662	ลด อะไร	-0.8426467
-1.035716	ลด อีก	-0.863735
-0.8016323	ลด เสียง	-0.1638567
-0.02996322	ลบ เพลง	-1.079593
-0.09691001	ลวก </s>
-0.06694679	ลอจิค รหัสวิชา	0
-0.06694679	ลอย สวีท	0
-0.2498775	ละ กัน	-0.9015688
-0.4259687	ละ ห้า	-1.09922
-0.07918125	ละลาย น้ำแข็ง	-0.6368221
-0.07918125	ละหมาด ไหม	0.553913
-1.163502	ลา ก่อน	-0.8046036
-1.163502	ลา ก่อย	0
-0.3853509	ลา ลา	-1.40302
-0.3853509	ลา แลนด์	0
-0.09691001	ลางาน สาม	-0.6775851
-0.07918125	ลาน โบว์ลิ่ง	-0.6368221
-0.07918125	ลิฟท์ ตรง	-0.1130396
-0.07918125	ลิมิต ใบ	-0.5713912
-0.06694679	ลิเนียร์ แอลจิบ้า	0
-0.06694679	ลิโด้ มั้ย	1.453755
-0.0234811	ลืม ปลุก	-1.149841
-0.06694679	ลุก แล้ว	-0.8325694
-0.3679768	ลุง ที่	-0.8408678
-0.3679768	ลุง ฟรุตตี้	0
-0.07918125	ลุ้น นาน	-0.7216699
-0.05799195	ลูก ทุ่ง	0
-0.07918125	ลูกชิ้นปลา จาน	-0.6837785
-0.90309	ล็อค บ้าน	-0.7565401
-0.4259687	ล็อค ประตู	-0.6268837
-0.90309	ล็อค หน้า	-0.7348302
-0.90309	ล็อค หรือ	-0.6481918
-0.90309	ล็อค ห้อง	-0.6610379
-0.06694679	ล็อบสเตอร์ เข้า	-0.785784
-0.06694679	ล่วง หน้า	-0.8282845
-0.04575749	ล่า สุด	-0.7059071
-0.8239087	ล่าสุด </s>
-0.8239087	ล่าสุด เป็น	-0.8105664
-0.20412	ล่าสุด เมื่อไหร่	0.09017658
-0.07918125	ล้าง ผัก	-0.5440681
-0.04139268	ล้าน บาท	-0.4237473
-0.6532125	วอล มี	-1.111228
-0.9542425	วอล รอบ	-0.8264825
-0.9542425	วอล วัน	-0.8198228
-0.6532125	วอล วันนี้	-0.7464427
-0.9542425	วอล เข้า	-0.785784
-0.9542425	วอล เป็น	-0.8105664
-0.07918125	วอล์ค ไป	-0.703859
-0.0211893	วัตถุดิบ อะไร	-1.080503
-1.305658	วัน </s>
-1.129567	วัน จันทร์	0
-1.974665	วัน ตอน	-0.7877824
-2.275695	วัน ถึง	-0.5617654
-2.150756	วัน ทำงาน	-0.552842
-1.012454	วัน ที่	-0.9026262
-0.6921186	วัน นี้	-0.6311826
-1.974665	วัน ปิดเทอม	0
-2.150756	วัน พรุ่ง	0.1026623
-1.247666	วัน พรุ่งนี้	-0.6270361
-1.752816	วัน พฤหัส	0
-1.451786	วัน พุธ	-0.4436975
-2.150756	วัน มะรืน	0.6812412
-1.974665	วัน มี	-0.5815019
-1.247666	วัน ศุกร์	-0.3049604
-1.974665	วัน สุดท้าย	-0.6560417
-2.275695	วัน อะ	-0.4919885
-1.410394	วัน อังคาร	0
-2.150756	วัน อาทิตย์	-0.4327021
-1.974665	วัน เปิด	-0.83589
-1.548696	วัน เสาร์	-0.07234192
-2.053846	วัน ไป	-0.703859
-0.793775	วัน ไหน	-1.071292
-1.410394	วัน ไหม	-0.02966356
-1.010724	วันที่ ยี่	0.845098
-0.9138138	วันที่ ยี่สิบ	-0.4771213
-0.2148439	วันที่ เท่าไร	-0.3357922
-1.135663	วันที่ แปด	-0.5833106
-0.7666916	วันนี้ </s>
-1.572872	วันนี้ กิน	-0.7716981
-1.669782	วันนี้ ตั้งแต่	-0.4771213
-1.067722	วันนี้ ต้อง	-1.135716
-1.669782	วันนี้ ทั้งหมด	-0.5026754
-1.572872	วันนี้ ทำ	-0.7715207
-1.49369	วันนี้ ที่	-0.8429881
-1.49369	วันนี้ นอนได้	0
-1.669782	วันนี้ นี้	-0.6781365
-1.572872	วันนี้ บ้าง	1.163857
-0.680777	วันนี้ มี	-0.9799737
-1.572872	วันนี้ ยัง	-0.7416344
-1.669782	วันนี้ ว่าง	-0.4476278
-1.79472	วันนี้ สอง	-0.5764732
-1.49369	วันนี้ หน่อย	0.06225675
-1.426744	วันนี้ เหลือ	-0.5916945
-1.19266	วันนี้ ไป	-0.6822642
-1.49369	วันนี้ ไม่	-0.834716
-0.07918125	วันปีใหม่ บ้าง	1.163857
-0.4771213	วันศุกร์ นี้	-0.6923081
-0.30103	วันศุกร์ มี	-0.5815019
-0.3521825	วันหยุด ติด	-0.915109
-0.6532125	วันหยุด นะ	-0.02765286
-0.6532125	วันหยุด นี้	-0.8399826
-0.01703334	วันเกิด ของ	-0.7204677
-0.09691001	วันเสาร์ นี้	-0.6361566
-0.09691001	วันไหน บ้าง	1.243038
-0.05115252	วาน มี	-0.6565835
-0.09691001	วานซืน ทำ	-0.6229358
-1.337459	วิชา </s>
-1.337459	วิชา ข่ายงาน	0
-1.638489	วิชา ฐานข้อมูล	0
-1.638489	วิชา ต่อไป	-0.7781512
-1.337459	วิชา ที่	-0.8100435
-0.9395192	วิชา นี้	-0.8922772
-1.638489	วิชา พารากราฟ	0
-1.161368	วิชา ภาษา	0.1139436
-1.638489	วิชา ลิเนียร์	0
-1.638489	วิชา วิเคราะห์ระบบ	0
-1.337459	วิชา สอง	-1.100782
-1.638489	วิชา อะ	-0.7350265
-1.161368	วิชา อะไร	-0.753998
-1.337459	วิชา อะไรบ้าง	0
-1.638489	วิชา อัลกอริทึม	0
-1.638489	วิชา เขียนโปรแกรม	0
-1.036429	วิชา เรียน	-0.8010813
-1.638489	วิชา แรก	-0.8061799
-1.638489	วิชา แล็บ	-0.69897
-1.638489	วิชา โครงสร้าง	0
-1.036429	วิชา ไหน	-0.8306203
-0.3521825	วิธี ทำ	-0.9435844
-0.3521825	วิธี อื่น	-0.5099138
-0.7596679	วิธีทำ ข้าว	-0.4202164
-0.7596679	วิธีทำ คะน้า	-0.5026754
-0.2825466	วิธีทำ ผัด	-0.6393159
-0.1249387	วินาที </s>
-0.30103	วิฟ มี
-0.06694679	วิลลิส เล่น	-0.8341026
-1.085172	วิศวะ กับ	-0.8133062
-1.085172	วิศวะ กี่	-0.6672661
-1.085172	วิศวะ ขาย	-0.8161343
-0.6080503	วิศวะ มี	-1.198171
-1.085172	วิศวะ ลด	-0.8093824
-0.6080503	วิศวะ เปิด	-1.234007
-1.085172	วิศวะ แอร์	-0.7170682
-0.06694679	วิเคราะห์ระบบ มี	-0.8437423
-0.60206	ว่า มี	-0.8437423
-0.6812412	ว่า วัน	-0.6795114
-0.3802112	ว่า อะไร	-0.6943829
-1.041393	ว่าง </s>
-1.217484	ว่าง ตอน	-0.6926066
-0.7403627	ว่าง บ้าง	0.8280647
-1.041393	ว่าง มั้ย	1.453755
-1.342423	ว่าง วัน	-0.5259372
-0.3571459	ว่าง ไหม	-0.145057
-0.06694679	ศาลา พระเกี้ยว	0
-1.70757	ศิลปิน ริฮันนา
-0.9294189	ศิลปิน ริฮันน่า	0
-0.3096302	ศิลปิน อะไร	-1.173257
-0.8624721	ศิลปิน แสตมป์	0
-0.8624721	ศิลปิน โจอี้บอย	0
-0.4973246	ศุกร์ </s>
-0.8653014	ศุกร์ จัด	-0.7138191
-0.8653014	ศุกร์ ตอน	-0.7984623
-1.166331	ศุกร์ นี้	-0.4573536
-1.166331	ศุกร์ ยกเลิก	-0.5256717
-0.8653014	ศุกร์ ได้	-0.8330335
-0.80618	ศูนย์ บริการ	-0.5440681
-0.7269987	ศูนย์ สอง	-0.8385671
-0.4259687	ศูนย์ สี่	-1.090249
-0.80618	ศูนย์ อาหาร	-0.7698152
-0.07918125	สกาย วอล์ค	0
-0.06694679	สคิป หอ	-0.640978
-0.06694679	สตางค์ ไหม	0.4869663
-0.06694679	สตาร์บัค ใน	-0.8336182
-0.8346326	สตาร์วอร์ ฉาย	-0.8252032
-0.8346326	สตาร์วอร์ ที่	-0.8429881
-0.5336026	สตาร์วอร์ ภาค	-0.594042
-0.8346326	สตาร์วอร์ มี	-0.8423823
-0.8346326	สตาร์วอร์ ได้	-0.7935735
-0.05799195	สต็อป </s>
-0.6812412	สถานี รถ	-0.7003916
-0.1497623	สถานี อะไร	-1.17788
-0.06694679	สน ใจ	0
-0.5314789	สปาเก็ตตี้ คาโบนาร่า	0
-0.2304489	สปาเก็ตตี้ ซอส	0
-0.5797836	สมัคร งาน	-0.7670999
-0.1995724	สมัคร สมาชิก	-0.60206
-0.6690068	สมาชิก มั้ย	1.453755
-0.6690068	สมาชิก มี	-0.8437423
-0.6690068	สมาชิก เมเจอร์	-0.7844002
-0.6690068	สมาชิก เอส	-0.7838284
-0.06694679	สมุด เล่ม	-0.447158
-0.06694679	สยอง ขวัญ	0
-0.3802112	สยาม สแควร์	-0.7257632
-0.3802112	สยาม เซนเตอร์	0
-0.0234811	สระ ผม	0
-0.05115252	สร้าง งาน	-0.6553894
-0.01424044	สร้างขึ้น เมื่อไร	0
-0.07918125	สลัดบาร์ หรือ	-0.7136933
-0.30103	สวิฟ </s>
-0.06694679	สวีท เซอเคิล	0
-0.447158	สว่าง </s>
-0.447158	สว่าง ทีวี	-0.7168816
-0.748188	สว่าง หน่อย	0.1292035
-1.099076	สอง </s>
-1.826075	สอง คน	-0.8360499
-2.002166	สอง ครึ่ง	-0.6874648
-1.604226	สอง จาน	-0.6154239
-1.428135	สอง ชั่วโมง	-0.5154417
-1.905256	สอง ชาม	-0.2586262
-1.905256	สอง ช้อนโต๊ะ	0
-1.826075	สอง ตอน	-0.8257211
-1.826075	สอง ตึกร้อยปี	0
-2.002166	สอง ถึง	-0.6764042
-1.905256	สอง ทำ	-0.7265049
-1.826075	สอง ที่	-0.8429881
-1.826075	สอง ที่นั่ง	0
-1.242498	สอง ทุ่ม	-0.5321689
-1.525045	สอง นาที	-0.3966885
-2.002166	สอง นี้	-0.6361566
-1.905256	สอง น่าดู	-0.5332372
-1.905256	สอง ผลิต	0.6368221
-1.905256	สอง ฟอง	0.2632414
-0.91403	สอง มี	-0.882985
-1.604226	สอง ยาว	-0.1293478
-1.826075	สอง ร้อย	-0.473487
-2.002166	สอง วัน	-0.6833462
-1.525045	สอง ว่าง	-0.8626012
-1.826075	สอง ศูนย์	-0.7549214
-1.604226	สอง สร้างขึ้น	0.4499691
-1.525045	สอง หนึ่ง	-1.102514
-2.002166	สอง อาทิตย์	-0.6478175
-1.905256	สอง อ้างอิง	0.4259688
-1.905256	สอง เกี่ยว	0.7269987
-1.905256	สอง เข้า	-0.6438725
-2.002166	สอง เดือน	-0.4612219
-1.905256	สอง เด็ก	-0.3123111
-1.604226	สอง เป็น	-0.6739186
-1.826075	สอง เรื่อง	-0.8058869
-1.905256	สอง แก้ว	-0.6268836
-1.905256	สอง ใช้	-0.7043651
-1.905256	สอง ให้	-0.6490566
-1.905256	สอง ได้	-0.7266268
-1.905256	สอง ไป	-0.703859
-1.525045	สอง ไม่	-1.035445
-1.826075	สอง ไส้	0
-0.07918125	สองทุ่ม ทุกวันศุกร์	0
-0.3117539	สอน ทำ	-0.9542425
-0.5336026	สอน วิชา	-1.093502
-0.8346326	สอน อยู่	-0.8346745
-1.221849	สอบ </s>
-0.9208187	สอบ กี่	-0.8366785
-1.221849	สอบ ตอน	-0.8355176
-1.221849	สอบ นอกเวลา	0
-1.221849	สอบ ย่อย	0
-0.6197888	สอบ วิชา	-0.8535725
-1.221849	สอบ หลาย	0
-1.221849	สอบ ห้อง	-0.7674931
-0.9208187	สอบ เป็น	-1.097021
-1.221849	สอบ ใช่	-0.6719713
-0.06694679	สอบย่อย กี่	-0.8409086
-0.06694679	สะสาง บ้าง	1.09691
-0.3802112	สะอาด บ้าน	-0.5782274
-0.3802112	สะอาด ไหม	0.553913
-0.4771213	สัก สิบ	-0.5158738
-0.3521825	สัก อย่าง	-0.6594615
-0.03476211	สับ ทำ	-1.037909
-0.1783831	สัปดาห์ นี้	-0.7717046
-0.5006024	สัปดาห์ หน้า	-0.6058232
-0.9622114	สั่ง กี่	-0.8366785
-0.9622114	สั่ง ที่	-0.8322818
-0.9622114	สั่ง รอบ	-0.7428404
-0.7403627	สั่ง อาหาร	-0.7613161
-0.9622114	สั่ง ใน	-0.757528
-0.5642715	สั่ง ไป	-0.7213284
-0.07918125	สั่งงาน เครื่อง	-0.7043651
-0.3679768	สาขา </s>
-0.3679768	สาขา ของ	-0.8385671
-0.9783762	สาม </s>
-2.045323	สาม ครึ่ง	-0.5934598
-1.920384	สาม ชั่วโมง	-0.6799815
-1.823474	สาม ทำ	-0.7265049
-1.619354	สาม ทุ่ม	-0.5373085
-1.920384	สาม นาที	-0.2677624
-1.920384	สาม นี้	-0.6361566
-1.823474	สาม น่าดู	-0.5332372
-1.744293	สาม บ้าง	1.09691
-1.823474	สาม ผลิต	0.6368221
-1.744293	สาม มิติ	0
-0.8692317	สาม มี	-0.9388055
-1.522444	สาม ยาว	-0.1293478
-1.744293	สาม ร้อย	-0.473487
-1.744293	สาม ร้าน	-0.8400772
-1.318324	สาม วัน	-0.9140759
